</s> 0.11166 0.11663 0.020123 -0.19302 0.23917 -0.14439 0.066197 0.16311 0.12542 -0.038734 -0.36021 0.13628 0.33223 0.014137 0.13176 0.079568 0.044037 0.1811 0.024399 0.17218 0.44105 -0.0049103 0.070279 -0.082519 0.044293 0.063156 -0.070789 0.078162 -0.051307 0.18647 -0.17216 -0.39272 0.031566 -0.060475 0.059583 0.16245 0.29656 -0.10951 0.0082133 0.08645 0.09499 0.37178 0.15073 0.11773 -0.082455 -0.13593 -0.1961 -0.12877 -0.20195 0.040376 -0.18485 -0.20933 -0.16415 -0.24356 0.25756 -0.25711 -0.16404 0.081755 -0.14777 -0.027181 -0.061154 0.016016 0.21204 -0.050493 0.047812 -0.12212 0.14865 0.09436 -0.15023 0.24034 -0.51652 0.050104 -0.18266 0.17067 0.040918 0.030311 -0.0448 0.0053639 0.10271 0.17747 0.0096123 0.27992 0.025278 -0.4302 -0.0065673 -0.043576 0.15255 0.068609 0.029376 -0.079062 0.20359 0.33759 0.14459 -0.0997 -0.13514 -0.11266 0.54458 0.26998 -0.010405 -0.10975 
thala -0.39815 -0.19688 -0.15069 -0.16969 0.16759 0.043944 -0.54008 -0.080866 0.40181 -0.39818 -0.77871 0.49246 0.20932 0.19941 -0.17612 0.13521 -0.060851 0.51196 0.11788 -0.35404 0.35459 -0.017871 0.38361 -0.28271 -0.068378 -0.58099 0.10177 0.098117 -0.13296 0.21495 0.23897 -0.29658 -0.56514 0.74148 0.10326 -0.2436 0.35705 0.59577 0.20097 0.11235 0.38968 0.23006 0.18012 -0.12005 0.43215 0.22751 0.3672 0.3811 -0.048647 0.33575 -0.37857 -0.41304 0.33214 0.26617 0.15114 -0.25101 -0.17324 0.80452 -0.38519 -0.0032119 0.36875 0.14815 0.18934 -0.17549 0.11528 0.22704 -0.10433 -0.29049 0.48104 0.069452 -0.13609 0.35034 -0.13847 0.094776 -0.57135 0.19763 -0.13586 0.14694 0.58672 0.10932 -0.33199 -0.13941 0.12104 -0.38933 -0.20236 0.35187 0.64684 -0.19534 0.25871 -0.54667 0.081118 -0.22885 0.22414 -0.5412 -0.8331 -0.41552 0.51658 0.041965 -0.20585 -0.38072 
... -0.086126 -0.11866 0.27535 -0.50528 -0.22814 -0.42987 0.010836 0.17994 0.35845 -0.098903 0.21879 -0.1017 0.33708 -0.22945 0.094081 0.12821 -0.13647 0.36689 -0.076912 0.14941 0.48662 0.017961 0.065781 0.029972 -0.4388 0.17073 0.096282 0.13903 -0.23735 0.12917 0.040533 -0.33499 0.073697 0.088807 0.1669 0.02036 0.44895 0.26939 0.063851 0.2775 -0.072905 0.053049 0.33719 0.31632 -0.15794 -0.13793 -0.080756 -0.11308 -0.29386 -0.073559 -0.14878 -0.1524 0.13475 -0.41042 0.06759 -0.2186 -0.057457 0.035808 -0.16099 -0.038734 -0.077033 -0.30252 0.013334 -0.068588 -0.18528 0.15026 0.11515 -0.22739 0.069439 -0.022273 -0.61404 -0.11497 0.028603 0.16578 0.0010552 -0.25311 -0.1682 -0.11369 0.41987 0.21293 -0.31335 0.13612 -0.19297 -0.72582 0.045451 0.13773 0.0182 -0.095534 0.17852 -0.28075 0.27405 0.4901 0.1354 -0.14169 -0.16361 0.029835 0.26054 -0.16208 -0.22975 -0.23352 
like -0.5393 0.35787 0.080866 -0.0094845 -0.36451 -0.071917 0.027792 -0.10957 0.53666 0.048388 -0.31286 -0.0021355 0.32727 0.36274 0.53266 -0.22105 -0.34442 0.22076 0.075554 0.08846 0.12404 -0.53129 -0.52996 0.046013 -0.12536 0.012198 0.010097 -0.49327 -0.46871 -0.30495 0.0069766 0.33705 -0.5156 0.046913 -0.42668 -0.025833 0.15447 -0.5814 -0.60946 0.28154 0.74356 0.35123 -0.16517 -0.068693 -0.089827 -0.1523 -0.26519 -0.38265 0.0060244 0.094058 -0.31892 -0.42912 -0.03391 -0.024235 0.30476 0.28732 -0.47019 0.1216 -0.14831 0.41198 0.25118 0.092524 -0.011206 -0.27592 0.17236 -0.62788 -0.63513 0.16375 -0.21035 -0.045718 -0.55216 -0.00058917 -0.32229 0.19798 0.22168 0.086679 0.634 -0.10299 0.44668 0.28322 -0.10049 -0.02389 0.25018 -0.57947 0.20099 0.010359 -0.025998 0.16107 0.062541 0.13015 -0.21835 0.35644 -0.12553 -0.055608 0.007443 -0.031881 0.72885 0.89167 0.018845 0.04926 
! 0.14943 -0.19255 0.17459 -0.36828 0.3994 0.1731 -0.17035 0.55006 0.16356 -0.081869 0.087884 -0.23159 -0.070932 -0.41577 -0.10324 0.13952 0.14115 0.028448 0.17997 0.24679 0.22382 0.097755 -0.24181 -0.43939 -0.22009 -0.49598 0.080288 0.35489 -0.15482 0.6953 -0.060547 -0.28092 -0.60729 -0.34279 -0.26961 -0.15722 0.16809 0.26799 -0.18848 -0.093556 0.031259 0.47699 0.088182 0.33424 -0.026385 -0.95123 0.26384 -0.11391 -0.50427 -0.090447 -0.20776 -0.048565 0.1714 -0.30794 0.23746 0.15341 -0.4563 0.19856 -0.0079139 0.36075 0.8492 0.064775 0.10622 0.22614 0.28486 0.049963 0.36492 -0.30647 -0.39431 -0.00090013 -0.76012 -0.15721 -0.39335 -0.30427 0.37589 -0.22613 -0.253 0.059862 0.58329 0.30387 -0.65473 0.35751 0.10661 -0.73075 0.49361 -0.068023 0.44437 -0.072639 -0.46356 -0.67495 0.29503 0.56727 0.17472 -0.17635 -0.31777 -0.32739 0.067134 0.13647 -0.20973 -0.082509 
mass -0.078053 -0.073953 0.24428 -0.06338 0.07321 -0.1562 -0.48637 -0.633 0.39199 0.37902 -0.47093 0.28726 0.079302 0.09625 -0.011375 -0.32297 0.084378 0.31985 0.07537 0.010915 0.14536 -0.40375 0.48541 -0.13119 -0.31211 -0.38481 -0.1916 -0.041955 -0.36785 0.20882 -0.055581 -0.22047 -0.12243 0.21521 0.093545 -0.31126 0.21409 0.17716 -0.22597 0.25863 -0.3039 0.17473 0.45116 0.34099 0.14322 0.35648 0.020485 -0.35452 -0.12886 -0.47822 -0.17612 -0.14439 -0.38588 0.13161 0.4009 -0.042392 0.12263 0.27496 0.022022 0.32559 0.10591 0.18339 0.42429 -0.3627 0.39944 -0.27439 -0.33667 0.0075978 -0.061967 -0.028235 -0.5888 0.24495 -0.31156 0.017947 -0.15011 -0.27183 0.01229 -0.040277 0.004031 -0.4314 -0.48659 0.060295 0.081678 -0.43192 0.1447 -0.032563 0.59522 -0.19742 -0.43787 0.058391 0.19998 0.17669 -0.12828 0.38701 0.075642 0.11342 0.62608 -0.029223 0.094128 0.15253 
.. -0.070613 0.022606 0.22894 -0.38119 -0.16498 -0.32322 -0.081473 0.20067 0.33546 -0.22321 0.18329 -0.011309 0.30025 -0.362 0.026725 0.20695 -0.12318 0.5756 -0.052686 -0.081941 0.52873 0.25028 0.094343 -0.012362 -0.25814 -0.111 0.19513 0.084164 -0.27235 0.15451 -0.15653 -0.38484 0.18485 -0.026631 0.28143 0.22965 0.11632 0.15942 0.17634 0.26844 0.16098 0.041012 0.02957 0.59166 0.081902 -0.037142 0.0089776 -0.3807 -0.43388 0.066929 -0.14501 -0.25354 0.07594 -0.22488 -0.050013 -0.28811 -0.019938 0.30141 -0.097002 0.16841 -0.085607 -0.23492 -0.0053492 -0.22951 -0.24295 0.06847 0.27704 -0.34453 0.063061 0.10367 -0.24686 -0.19819 -0.17323 0.12752 -0.067702 0.07346 0.13045 0.18206 0.49235 0.3536 -0.30036 0.5419 -0.073136 -0.655 0.015798 0.010259 0.075689 -0.074539 0.069105 -0.066975 0.57258 0.42506 0.17377 0.12393 -0.22556 0.14293 0.51441 -0.074476 -0.25791 -0.31964 
. -0.098505 -0.23039 0.057967 -0.096669 -0.067628 0.2849 -0.16996 -0.1262 -0.037898 -0.11399 -0.38067 0.02392 0.13024 0.11235 0.12658 -0.026031 0.14989 0.4332 0.15883 0.060585 0.34995 0.063075 0.30541 -0.042635 -0.16732 -0.057117 -0.023449 -0.22781 0.16493 0.14705 -0.23886 -0.46822 -0.16924 -0.1495 -0.071468 -0.038046 -0.0087724 -0.059978 -0.13229 -0.053668 0.10418 -0.018246 0.1155 0.5126 -0.097289 0.19197 -0.091113 0.052574 -0.14966 0.26664 -0.25854 -0.25529 -0.18078 -0.18835 0.38499 -0.27051 -0.019203 0.13505 -0.14443 -0.33563 -0.028416 -0.092656 -0.025567 0.13236 -0.0142 -0.25369 0.089663 -0.18527 0.0046958 0.048067 -0.55036 0.22565 -0.50526 0.20853 -0.040674 -0.15846 0.00171 -0.048529 0.11936 -0.0050898 -0.16912 0.54088 -0.13441 -0.0092429 -0.10619 -0.27596 0.071338 -0.28015 0.020689 -0.13043 0.27516 -0.022105 0.095539 0.0083403 -0.035611 -0.61778 0.24932 0.3957 -0.11286 -0.083646 
trailer -0.077078 -0.02052 0.46422 -0.0749 0.23093 -0.46022 -0.21145 0.014384 0.2253 0.17886 -0.14235 -0.38459 0.3988 -0.061816 -0.14162 -0.22698 -0.1559 0.17804 -0.066683 -0.15265 0.13654 0.38876 -0.2141 -0.13312 -0.068287 0.14999 -0.33962 0.13032 -0.087156 -0.077324 -0.16521 -0.16875 -0.66273 0.2987 -0.54179 0.048577 -0.18653 -0.25462 -0.56988 0.19586 0.25027 0.053241 0.049794 -0.14137 -0.12364 -0.041593 -0.38217 0.17574 0.31144 -0.0027395 -0.058021 -0.12621 -0.0036969 -0.010261 0.27276 -0.084717 -0.032045 -0.078588 -0.35495 -0.00076338 -0.37469 0.33375 0.0075031 -0.10879 0.037348 -0.56559 0.05266 -0.086236 -0.10648 -0.047211 -0.7846 0.15602 -0.019844 0.65135 0.30356 -0.40871 0.030156 0.017066 0.29127 0.068665 -0.20592 0.18577 0.022484 -0.29903 0.039103 -0.21122 -0.15506 -0.20119 -0.27344 0.17467 -0.072238 -0.087436 0.14674 -0.11772 -0.37944 -0.3441 0.62577 0.38761 -0.052369 0.024052 
vera -0.54594 0.34804 0.21962 -0.35918 0.23472 -0.020401 -0.74479 -0.43445 0.32875 0.019246 -0.080452 0.37979 0.035614 0.1066 -0.46217 0.10179 0.1754 0.66857 -0.086421 0.22182 0.2103 0.16927 0.29643 -0.00027106 -0.064014 0.093228 -0.040784 -0.35227 -0.10346 0.054482 -0.20897 -0.16218 0.078257 -0.21729 -0.35811 -0.28982 0.15633 0.075122 -0.52959 -0.11828 0.17013 0.093412 0.4333 0.14005 0.14365 0.15791 -0.043934 -0.40772 -0.5706 0.13565 -0.64592 -0.070047 -0.17178 -0.13625 0.36714 -0.14391 -0.29054 0.087816 -0.32981 -0.17084 0.22606 -0.1156 0.38403 -0.058655 0.22018 -0.3359 -0.091339 -0.088257 -0.19849 0.58187 -0.42218 0.42614 -0.11806 0.0774 -0.3729 -0.51877 -0.29977 0.20853 -0.072689 -0.080707 0.074007 0.036495 -0.20787 -0.37299 -0.22794 0.28859 0.3474 0.47037 0.19793 0.043285 -0.21217 0.11846 -0.15996 -0.055942 -0.4324 -0.2731 0.037281 -0.61998 -0.33542 -0.29299 
, 0.44016 -0.061078 -0.2663 -0.47634 -0.18845 -0.063166 -0.036213 -0.24986 -0.060787 -0.22159 -0.083865 -0.2033 0.12737 0.20103 -0.13004 -0.22751 0.13751 -0.077945 -0.060871 0.47786 -0.099115 -0.1139 -0.096461 -0.45725 -0.66978 0.054211 0.13501 0.21779 -0.22551 0.9153 -0.2791 -0.73329 -0.21468 -0.13257 0.079971 0.011357 0.24549 0.15311 -0.050389 0.11369 0.018975 -0.24357 0.030708 0.082346 -0.16218 0.3039 -0.64182 -0.16418 -0.59662 0.34319 -0.81339 -0.23011 0.023247 -0.49964 0.36456 -0.30448 0.1535 0.47255 -0.024389 -0.027526 0.62271 -0.081581 0.43562 -0.2102 -0.55959 -0.15448 0.39433 0.28089 -0.51439 -0.033881 -0.32181 0.21182 0.039027 0.36023 0.1076 -0.39676 0.33489 0.083978 0.17829 0.27784 0.037805 0.28357 -0.070221 -0.027451 -0.20397 -0.12127 0.18137 -0.0055497 -0.14155 -0.58449 0.12873 -0.051756 -0.11385 0.069475 0.28911 0.030692 0.43543 0.37805 -0.1831 -0.15732 
.... -0.19092 -0.19755 0.29688 -0.5307 -0.074566 -0.10198 -0.0037082 0.12551 0.34049 -0.16352 0.095123 -0.21809 0.21349 -0.33483 0.019231 0.073712 -0.13834 0.43913 -0.055525 0.23739 0.54783 0.030742 0.22137 0.14119 -0.41961 0.20283 0.13667 0.11618 -0.31475 0.21738 -0.058514 -0.45475 0.24657 0.2618 0.039834 -0.20272 0.46426 0.22906 0.1149 0.073768 -0.010909 -0.013197 0.5557 0.10526 -0.030218 -0.2269 -0.19347 -0.2004 -0.032889 -0.1329 -0.24117 -0.35777 0.047519 -0.34374 0.1017 -0.054175 0.074242 0.13668 0.014571 -0.10218 -0.22459 -0.25437 0.083757 0.039757 -0.1167 -0.010918 0.060886 -0.11154 -0.021983 -0.19242 -0.62898 0.094346 -0.037158 0.30197 0.11346 -0.21224 -0.0071845 -0.12965 0.44992 0.085171 -0.2965 0.10494 -0.18992 -0.44595 0.056465 0.21581 -0.10246 -0.15493 0.24602 -0.22663 0.11395 0.30177 0.14423 -0.059787 -0.050245 -0.072753 0.466 -0.063982 -0.15737 -0.11139 
level -0.27797 0.4602 0.027865 -0.4617 0.19461 -0.04828 -0.5829 -0.33723 0.47293 0.12731 -0.35869 0.16175 0.33651 -0.36791 0.036818 0.10876 0.058742 0.20347 0.1184 0.34577 -0.043559 0.25448 0.16823 -0.16181 -0.10767 -0.10813 -0.13465 -0.043671 -0.15814 0.17747 -0.011492 -0.14683 0.020525 -0.37625 -0.4446 -0.28306 0.11492 0.33161 -0.56097 -0.091613 0.0067812 0.31444 0.26916 0.39725 0.11067 0.25214 -0.19607 -0.038209 -0.43843 -0.079641 -0.48422 -0.35758 -0.02273 -0.17752 0.13404 -0.32373 -0.33991 0.23395 -0.17863 0.17899 0.22782 -0.1065 0.616 -0.35536 0.34144 -0.21161 -0.013214 -0.062891 -0.23569 0.56248 -0.31155 0.4705 -0.54421 0.049666 0.048208 -0.48295 -0.30871 0.38536 0.040877 -0.26355 -0.0039097 0.20736 0.088896 -0.41236 -0.29565 0.28156 0.23956 0.45778 0.26802 -0.064904 -0.50302 0.10211 -0.38218 0.19717 -0.20525 -0.1968 0.29203 -0.64837 -0.24341 -0.12469 
movie -0.22922 0.34072 0.39184 -0.52128 -0.46461 -0.31254 -0.23904 0.12297 -0.16817 -0.39107 0.15184 -0.18407 0.3336 -0.069693 0.35078 -0.32946 0.34801 0.18099 -0.094556 0.17643 0.22483 0.04947 -0.078372 0.28625 -0.099542 -0.1429 0.08013 0.059923 -0.29999 -0.024658 -0.067148 -0.048648 0.072628 -0.17157 -0.62212 -0.34646 -0.13393 -0.27054 -0.47491 0.11553 0.065435 0.13917 -0.21703 0.10919 0.12537 0.35684 -0.31837 -0.065508 0.36999 0.015238 -0.13304 -0.24999 0.095926 -0.47194 -0.01148 -0.45807 0.16135 0.36067 0.17094 0.0079592 0.22336 -0.46836 0.076254 0.0061894 0.073916 -0.066952 0.256 0.17306 0.0096089 0.1073 -0.42386 0.50886 0.033319 0.19238 -0.31539 -0.49133 0.014702 0.18616 -0.14846 -0.16235 -0.40173 0.55892 -0.049296 -0.22482 -0.3714 0.14116 0.13304 0.041625 -0.12779 0.069879 0.59089 0.23848 -0.12649 -0.054743 -0.17505 -0.31954 0.62768 0.44297 0.046458 -0.069789 
fans 0.39504 0.35644 0.049159 0.074704 0.11553 0.15375 0.23837 0.2848 0.21887 0.20483 -0.24181 0.13638 0.15211 -0.2828 0.15468 -0.23182 -0.18332 0.83876 -0.14875 0.21945 0.38632 -0.13577 0.0039046 0.18285 -0.21316 -0.3969 0.35106 0.026155 -0.7521 0.22322 0.1538 -0.14516 -0.28344 0.34421 0.19061 0.046639 0.18666 -0.31534 -0.28762 -0.26246 0.61806 0.073786 0.11011 -0.11396 -0.25221 0.15899 -0.48588 -0.29412 -0.4218 0.37917 -0.32046 -0.13613 0.17248 -0.19787 0.13027 -0.034412 -0.58079 0.0683 -0.15564 0.012502 0.1765 0.09177 -0.10245 -0.012103 -0.097416 -0.30372 0.24257 0.17625 0.27765 0.31936 -0.32976 -0.18194 -0.57405 0.14109 0.12912 0.24071 0.47549 0.42335 0.55319 -0.013265 0.085086 0.25609 0.13552 -0.29126 0.041975 -0.24395 0.57152 0.072341 0.17695 -0.23909 0.063529 0.19616 -0.097558 -0.080057 -0.10417 0.42691 0.27182 0.23673 0.15675 0.20799 
super 0.55476 0.079818 -0.0013251 -0.23712 0.10271 -0.074319 -0.55328 -0.24684 0.060817 -0.20943 0.052208 -0.10518 0.22154 -0.015253 -0.29259 -0.14946 -0.20889 0.015263 0.37721 -0.50778 0.31817 0.53322 -0.0091212 -0.08521 -0.64658 -0.040616 0.5437 0.49762 -0.27684 -0.35355 -0.29765 -0.30956 -0.39663 0.22415 -0.035407 -0.2131 -0.17819 -0.34908 -0.51329 -0.26721 -0.25748 -0.32166 0.28048 0.32988 0.27487 0.33679 0.1042 0.1597 -0.65729 -0.10941 -0.38276 -0.15071 -0.1662 -0.48007 0.18499 -0.56552 -0.35699 0.24411 0.1292 -0.42821 0.17625 0.22433 -0.06478 0.0038112 0.15933 -0.37383 -0.2192 0.093645 -0.18108 0.11047 -0.30375 0.17425 -0.56141 0.15581 -0.30611 -0.54043 0.10763 -0.66751 0.18024 0.0062968 0.20418 0.73057 -0.0337 -0.49522 0.1894 -0.16672 0.55542 0.36638 0.40327 0.22911 -0.17159 0.30881 0.46376 -0.31287 -0.37805 -0.099618 0.45701 0.084462 -0.19165 -0.16957 
la -0.041395 -0.18009 -0.12256 0.0022712 -0.041448 -0.11751 -0.31111 -0.33321 0.28674 0.12384 -0.12022 -0.064195 -0.14811 -0.051315 -0.12183 0.37235 -0.26169 0.038525 -0.18963 -0.23934 -0.37247 -0.090288 0.4683 0.18895 -0.37669 -0.2537 0.347 0.14995 -0.83749 0.39664 0.71409 -0.2367 -0.28421 -0.023571 -0.10503 0.2784 -0.023884 -0.053649 -0.30044 -0.23708 -0.23019 0.23327 -0.080065 0.90921 0.36396 0.16329 -0.17884 0.50894 0.015301 0.5933 -0.19673 -0.32445 0.56571 0.13437 0.33384 -0.12701 0.24298 0.30599 -0.70178 0.20557 -0.33294 -0.49958 0.27326 -0.34799 -0.1752 -0.11276 -0.3435 -0.092783 0.10657 0.27775 -0.56888 0.42755 -0.0095297 0.56526 -0.16344 0.35421 -0.29861 0.14217 -0.072955 0.42758 -0.069624 0.32718 -0.35279 -0.55279 0.29858 0.58445 -0.086314 -0.14619 -0.33335 -0.023654 0.12703 0.50833 0.25299 -0.12739 0.058204 -0.22773 0.37664 -0.24531 0.17559 -0.14216 
? -0.11819 -0.43233 0.22279 -0.10499 -0.25346 -0.094198 -0.2304 0.51409 -0.048331 0.42647 -0.072027 0.044902 0.27603 -0.20748 -0.30402 0.085461 0.29126 0.17154 0.01432 -0.17526 0.092576 -0.18697 -0.40549 0.14911 -0.14835 0.046649 0.47128 -0.19618 0.1444 0.52007 0.61531 -0.063069 -0.41077 -0.14441 -0.063335 -0.20417 0.12433 -0.3294 -0.20331 -0.11037 0.16365 1.013 -0.024981 -0.19772 0.12733 -0.69148 0.014561 -0.42802 0.13667 0.39987 -0.35588 -0.035836 -0.44004 -0.25635 0.13446 -0.31619 0.11346 0.40452 0.16873 0.077813 0.094695 -0.30952 0.46905 0.29454 0.2387 -0.19358 0.26918 0.36726 0.74513 0.056005 -0.55156 0.041315 -0.38149 0.0048837 0.34468 -0.42011 -0.26558 -0.23606 0.40785 0.37102 -0.70202 0.52167 -0.07848 -0.88621 0.37146 0.026822 0.15006 -0.26522 -0.52843 -0.5534 0.29992 -0.42713 0.055768 0.31096 0.1431 -0.078505 0.29615 0.16059 -0.20508 0.38452 
sir 0.13327 0.10575 -0.3157 -0.3295 -0.098011 -0.59488 0.36673 -0.18646 -0.011858 0.46347 0.29553 -0.12577 0.11814 0.01159 0.30375 0.12614 -0.14847 0.93994 -0.29508 -0.16986 0.27736 -0.01626 0.070207 -0.23213 -0.14591 0.01798 -0.15506 0.28819 -0.25527 -0.051326 0.20531 -0.53885 -0.13045 -0.10271 -0.45372 0.12072 0.267 -0.1357 -0.16912 -0.35841 -0.015622 0.12857 0.13096 -0.045483 -0.21468 0.35983 0.023315 0.24021 -0.39837 -0.25431 -0.45944 -0.2141 -0.0047801 -0.12038 -0.27772 -0.80908 -0.10653 0.030824 0.11101 -0.19726 0.23712 0.21954 0.25005 0.26923 0.15593 -0.021051 -0.079369 0.31091 0.058136 0.14518 -0.40711 -0.015383 -0.41437 0.37181 -0.064708 -0.16743 0.18777 -0.087809 0.24499 -0.20198 0.1204 0.41223 0.017869 -0.19934 0.092845 0.25637 0.74452 -0.31648 0.3695 -0.041987 0.040601 0.53074 0.24909 -0.043414 -0.53535 0.36627 -0.0019204 0.28458 0.022532 -0.13947 
padam -0.02523 0.35418 0.50954 0.27663 0.18827 -0.29146 -0.23507 0.26169 -0.3324 0.0052998 0.029688 -0.80756 -0.048022 -0.22639 0.20872 -0.17946 -0.20398 0.12139 -0.59729 -0.0492 0.46287 0.075512 -0.14738 -0.087318 -0.65685 0.50764 0.2341 0.16567 -0.39452 -0.067699 -0.060494 -0.20089 0.061148 0.16285 -0.30833 -0.36506 -0.26566 0.61285 -0.18185 -0.10891 0.73717 0.3775 0.062711 0.1632 -0.098355 0.062492 -0.21851 0.10839 0.2919 -0.19962 -0.17117 0.0027636 0.075242 -0.34467 0.081861 0.076259 0.077187 -0.44975 -0.01835 -0.1811 0.33308 0.046131 0.078783 -0.43314 0.30878 -0.18475 0.38542 -0.076109 0.44104 -0.073446 -0.45957 0.19065 -0.30933 0.18105 -0.17858 -0.25933 -0.16623 0.52485 -0.32241 0.29891 -0.036025 0.49199 0.058877 -0.16598 -0.15574 0.3948 0.13889 0.37143 0.10916 0.0031198 0.62271 0.8262 -0.29241 0.11446 -0.3253 -0.35617 0.61709 0.29725 -0.22989 -0.19896 
da 0.38448 -0.088096 0.038512 0.42446 0.083679 0.1467 -0.22838 0.27712 -0.026155 -0.16033 0.38701 -0.07538 0.77894 0.33309 -0.55874 -0.47991 -0.01225 0.33475 -0.47033 0.27022 0.011776 -0.44656 -0.19749 0.10749 -0.017155 -0.41369 0.70978 -0.54225 -0.14559 -0.19611 0.41309 -0.57982 0.033901 -0.17215 -0.033876 -0.48478 0.07489 0.03169 0.038475 0.34531 -0.12625 0.34765 0.042898 0.091653 0.0079768 -0.03834 -0.17135 -0.71095 -0.11754 0.14074 -0.64013 -0.2405 0.11094 -0.026409 -0.04773 -0.1543 -0.52854 -0.20808 -0.029243 -0.017911 0.081488 0.2991 0.50336 0.30092 -0.78449 0.16649 -0.16443 -0.20117 -0.21008 0.094708 -0.30034 0.35285 0.19548 0.37778 -0.22379 0.18658 -0.11967 0.23687 0.312 0.16134 -0.25285 -0.044487 -0.22294 -0.3546 -0.093565 -0.38596 0.33655 0.46331 -0.4383 -0.19337 0.33334 0.27468 -0.2532 0.22271 -0.2385 -0.53719 0.45771 0.34553 -0.22903 -0.12403 
ah -0.11091 -0.014646 0.036428 -0.094657 0.34042 -0.31932 0.018357 -0.29476 0.021094 0.31327 0.28247 -0.097161 0.25373 0.14617 -0.063072 -0.096689 0.34109 0.28946 0.32034 -0.11254 0.072932 -0.09283 0.43738 0.1909 -0.18956 0.097287 0.3822 -0.11986 -0.43226 -0.17807 0.33675 -0.17385 -0.37356 0.30472 -0.0846 0.24209 0.017299 -0.48251 -0.33639 0.097645 -0.068746 0.29345 0.084862 0.12964 0.29983 0.079497 -0.46451 -0.12822 0.096142 -0.082635 -0.14987 -0.36272 -0.16348 -0.36567 0.30857 0.013045 0.30214 0.11395 -0.40897 0.52594 -0.033404 -0.063535 -0.057363 -0.061654 -0.31001 -0.19544 0.12674 -0.079703 0.17044 -0.091596 -0.61405 -0.24322 -0.42769 0.51933 0.2678 0.13178 -0.062465 -0.01078 0.26339 0.22128 0.084179 -0.15056 0.21277 -0.38418 -0.055394 -0.19516 -0.094035 0.1302 -0.19876 -0.11585 0.21349 0.17153 -0.10736 0.14279 -0.056449 -0.31659 0.47313 0.35763 -0.37309 -0.5096 
i 0.051108 0.26652 0.43991 -0.25961 -0.31382 0.02816 -0.36139 0.16346 -0.078276 -0.16967 -0.2267 0.032682 0.20482 -0.13743 0.26137 0.18853 0.39334 0.81416 -0.07896 0.13306 0.29457 -0.14036 0.012781 -0.21265 -0.2635 0.058344 -0.073041 -0.021499 -0.41992 0.15558 -0.45931 -0.46116 -0.29453 -0.13849 -0.2652 0.24354 0.6654 -0.16032 -0.41997 0.095994 0.14821 -0.084882 0.21443 0.06036 -0.022077 0.25206 -0.21545 -0.17011 -0.25156 -0.25116 -0.0060267 0.039492 0.47084 0.033455 0.15308 -0.4426 -0.22477 -0.17075 -0.20017 0.10176 0.41181 0.14266 -0.20065 0.0075494 0.52601 -0.60532 -0.14436 0.37511 0.42396 0.22923 -0.26073 0.15632 -0.54949 -0.050674 -0.30328 -0.2952 -0.076771 -0.64387 0.21818 -0.23155 -0.38878 0.25612 -0.2868 -0.097957 -0.4273 0.13179 0.40922 -0.42438 0.25743 -0.014922 0.15547 -0.11321 -0.19166 -0.020201 -0.20627 -0.45336 0.41011 0.15186 -0.08975 -0.38975 
ku 0.14052 0.081564 0.045793 0.015849 0.03147 0.48644 0.18338 0.33758 -0.55491 0.5316 -0.45479 -0.15313 0.50022 -0.044192 0.61635 0.48844 0.43521 0.0010014 -0.016337 -0.19225 -0.075722 0.1887 0.31573 -0.38086 -0.46905 0.011653 0.63088 0.47009 -0.32042 0.043184 0.13175 -0.17267 -0.20472 0.13677 0.17173 -0.41132 0.2019 0.35402 -0.30948 -0.56172 0.46309 0.38065 0.13794 0.30345 -0.073473 0.061493 -0.64325 -0.51938 -0.15079 0.55668 -0.27255 -0.16727 -0.30016 -0.25892 0.33631 -0.10596 0.046899 -0.48818 -0.0094286 0.35666 0.04885 0.35831 -0.40676 -0.40023 -0.47408 0.12416 -0.097719 -0.023659 0.25738 0.1955 -0.34537 -0.11599 -0.0051584 0.33068 -0.16642 0.24224 0.24014 0.14057 0.55162 0.15931 -0.086548 0.11908 0.17096 -0.18053 0.048929 0.097279 0.15092 0.051218 -0.1206 0.31422 0.4719 0.23416 0.19341 0.5358 -0.066819 -0.41487 0.22157 0.19802 0.82132 -0.46391 
oru 0.11932 0.48836 0.23229 0.055861 0.22687 0.13598 -0.37219 0.25247 0.30184 -0.013739 0.090965 -0.023112 -0.092454 0.071931 0.04677 0.040972 0.14095 0.1654 0.24744 -0.34104 0.054725 0.24684 0.077228 0.11101 -0.271 0.30123 0.097901 0.64643 -0.33533 0.31125 0.22377 0.073953 -0.44366 0.034155 -0.34263 -0.046513 0.4553 -0.072264 0.30847 0.26268 0.52393 0.48899 0.029029 0.32448 -0.36687 -0.025675 -0.29415 0.28417 0.20382 -0.14413 -0.23443 -0.66975 -0.22811 -0.34341 0.14396 0.70569 -0.020779 0.18469 -0.031499 -0.031639 0.28771 -0.25538 0.061392 -0.02545 -0.45445 -0.19336 -0.1023 -0.39484 0.095278 -0.066398 -0.35253 -0.12007 -0.33292 0.74032 -0.4504 -0.072259 -0.25619 0.17514 -0.038783 0.23913 0.11981 0.010388 0.43166 -0.14662 -0.073642 0.085395 0.26986 0.36339 -0.11895 -0.052367 0.50955 0.35159 0.038572 -0.26411 -0.5165 -0.27775 0.54325 0.27487 0.10351 -0.38501 
waiting -0.025489 -0.19685 0.3575 -0.35083 -0.45971 0.093054 -0.13057 -0.11948 0.38085 -0.28823 -0.43509 -0.43589 0.46208 -0.10563 0.11542 0.17028 -0.24121 0.37687 0.050181 -0.20882 0.18348 0.088255 0.35714 -0.26144 -0.13874 -0.075778 -0.20023 0.31007 -0.44974 0.024148 0.28223 -0.47231 0.35333 0.10628 -0.59686 -0.086998 0.58233 0.14285 -0.42393 0.037922 -0.0338 0.2075 0.30784 0.024778 0.40971 0.36568 -0.58558 0.27661 -0.17183 -0.10256 -0.053745 0.12053 0.058317 -0.22425 0.7152 -0.37703 -0.29768 0.032769 0.021685 0.61804 0.46844 0.012003 0.11071 -0.40554 0.27381 -0.49277 -0.33684 0.35557 -0.22478 0.32367 -0.46519 0.22197 -0.018063 0.07942 -0.11363 -0.080562 0.11532 -0.016758 0.27003 -0.31467 -0.53046 -0.097589 0.34384 -0.37899 0.10677 0.39881 0.285 0.2484 0.39393 -0.42188 0.18749 -0.056725 0.0069181 0.54745 -0.061921 0.062697 0.21429 -0.025457 0.12817 -0.19792 
hit 0.25854 0.08486 -0.091043 0.040258 -0.085315 0.037422 -0.30975 0.058515 0.28816 0.22851 -0.23064 0.036491 0.025301 -0.063642 -0.29886 0.20958 -0.19222 0.28279 0.31898 0.11989 0.50701 0.17064 0.074027 -0.096482 -0.2936 0.0047656 0.11106 0.66227 -0.48097 -0.17535 -0.0025769 0.039216 -0.39496 0.49358 -0.26791 -0.023451 0.079845 -0.65059 -0.32275 -0.37307 0.48227 0.52725 -0.023643 0.029327 -0.053624 0.13153 -0.079835 -0.17015 -0.29404 0.11157 -0.24099 -0.023165 0.24731 -0.0025762 0.011466 0.0063546 -0.40751 0.13828 0.24713 -0.012707 0.31919 -0.051017 -0.19687 0.18448 0.57365 -0.2929 -0.38646 0.092334 0.39701 -0.11869 -0.46958 -0.089759 -0.4783 0.31903 0.036137 0.31677 0.28715 0.24967 0.46244 -0.18749 -0.19008 0.48635 0.13015 -0.0038697 0.0099724 -0.32572 0.19707 0.31675 -0.13923 0.01626 -0.11603 0.49475 0.18508 0.045222 -0.16813 -0.024301 0.34125 0.19698 0.23248 0.24135 
..... -0.15586 -0.52377 0.21258 -0.51877 0.01492 0.16599 0.091625 0.12619 0.42325 -0.17746 0.23052 -0.55448 0.213 -0.18123 0.22352 0.21658 -0.063703 0.51915 0.023045 0.36749 0.45277 0.14091 0.30299 0.16138 -0.4132 0.051321 0.3614 -0.065813 -0.33597 0.09831 -0.069937 -0.3787 0.43221 0.44869 -0.16049 -0.49698 0.4222 0.3223 -0.032413 -0.037825 -0.024569 0.025619 0.78349 -0.0049958 -0.26032 -0.44708 -0.3482 -0.27337 -0.082155 -0.3698 -0.49168 -0.33187 0.067319 -0.063141 0.00083931 0.17517 -0.032272 0.21977 -0.044691 -0.19218 -0.29547 -0.15047 0.18817 0.0011017 -0.030619 -0.056595 0.15144 -0.092543 0.15056 -0.65366 -0.5546 0.38712 -0.22347 0.3626 0.0041134 -0.16214 -0.0072941 -0.36196 0.54701 -0.0955 -0.20244 0.16754 -0.37161 -0.44456 -0.10802 0.22272 -0.044557 -0.18039 0.36034 -0.14708 -0.062326 0.27537 0.16308 -0.15165 0.057179 -0.17979 0.5117 -0.015058 -0.22008 0.064447 
marana 0.056593 -0.43104 0.32827 -0.65218 0.011185 -0.49783 -0.97041 -0.3748 0.3092 0.08111 -0.15644 0.28268 0.014624 0.092033 0.37107 0.013739 -0.055226 0.83647 0.04068 0.21868 -0.16221 -0.3587 0.88793 -0.59288 -0.25063 0.13391 0.084427 0.21418 -0.39823 0.29285 0.27845 -0.54945 -0.10922 0.41044 -0.32904 -0.1981 0.32009 0.20489 -0.13865 0.0023471 0.13751 -0.33282 0.64444 0.14371 0.40162 -0.1006 -0.53494 0.14058 -0.29143 -0.28896 -0.077695 0.12175 -0.12556 0.019062 0.30043 -0.33459 -0.0068552 0.00062625 -0.071899 0.21252 -0.011153 -0.093709 0.28856 -0.36493 0.13374 -0.013884 -0.1596 0.43585 0.021566 0.06801 -0.70662 0.35379 -0.16909 -0.23421 -0.2601 -0.012581 0.45851 -0.36699 -0.09091 -0.47518 -0.072901 0.34818 -0.14027 -0.48788 0.062242 0.073778 0.1979 0.69032 -0.20982 0.1884 0.15802 0.06567 0.056543 -0.055631 -0.081134 0.014341 0.31742 -0.26288 0.50755 -0.11255 
bgm -0.31439 0.94479 0.034762 -0.3074 -0.020631 -0.10116 -0.053703 0.072678 0.487 0.16258 -0.19351 0.14227 0.61727 0.25145 -0.051012 -0.15215 -0.062027 0.3742 -0.0014866 0.09416 0.32462 0.076809 0.41689 0.074173 0.18763 -0.085435 -0.35398 0.20302 -0.16363 -0.35349 -0.34704 -0.2223 -0.3478 -0.055159 -0.44466 -0.24493 0.2189 0.048376 -0.18304 0.12398 0.37289 0.039528 0.37349 0.18432 0.57807 -0.23225 -0.40496 0.011325 -0.33722 0.39371 -0.34678 -0.21731 0.046194 0.06504 0.029218 -0.44683 0.34552 0.31164 -0.10386 0.32158 0.27343 -0.014344 0.4236 -0.13461 0.14401 0.18315 -0.015394 -0.048819 -0.21434 -0.15296 -0.38424 0.45801 -0.13233 0.58252 -0.064649 -0.13119 -0.33994 0.26027 0.037351 -0.033512 0.44112 0.58354 0.14874 -0.69183 -0.28403 0.27717 0.36405 0.22425 -0.35085 0.2259 0.27672 -0.13018 -0.27879 -0.031304 -0.43631 -0.54917 -0.024812 -0.42892 -0.4722 0.0081693 
# -0.031877 0.24806 -0.14397 -0.79021 -0.20165 -0.31562 -0.18647 0.56886 0.13128 0.34746 -0.27326 -0.49715 0.51973 -0.35962 0.0020309 -0.044016 -0.020129 0.43705 -0.5094 -0.12798 0.55304 0.096055 -0.027046 -0.032762 -0.57762 -0.23867 0.18097 -0.13342 -0.3544 -0.22572 -0.31892 -0.54384 -0.41748 -0.18529 -0.28348 -0.34153 -0.026678 -0.10528 0.19415 0.027968 0.22861 0.6984 0.20655 -0.22352 0.17625 0.070599 -0.56794 -0.066071 0.26463 0.49601 0.1601 -0.073227 -0.26374 0.23255 0.34646 -0.046108 -0.068982 0.48975 -0.52003 0.052167 -0.17796 0.51222 0.073514 -0.080141 0.10305 0.050973 0.27625 0.03574 -0.10891 0.16731 -0.47079 0.016955 -0.6502 0.24135 0.18961 -0.14293 -0.13608 0.23924 0.76874 -0.67164 -0.40983 0.26682 0.33171 -0.083054 0.32057 -0.38525 0.37069 0.0089262 -0.47416 -0.25462 -0.25012 -0.41016 0.49975 -0.50679 -0.36252 0.31201 0.15043 -0.13568 -0.31025 -0.25057 
iruku -0.13337 0.505 0.19118 0.50743 0.16568 0.2531 -0.15678 0.35804 -0.34171 0.027242 -0.20207 -0.4983 -0.058607 -0.67456 -0.43828 -0.070837 -0.31863 0.036582 -0.17046 0.27325 -0.060824 -0.42275 0.39225 -0.34691 -0.33574 0.38167 0.42306 -0.016344 -0.83691 0.22221 0.62382 -0.57616 -0.80587 -0.16612 -0.034718 -0.63608 0.24018 0.092487 -0.6913 0.20599 -0.17567 0.29432 0.68887 -0.51785 0.25232 -0.33433 -0.19447 -0.43817 -0.047756 -0.40415 -0.10131 -0.45167 -0.027394 0.042961 0.36752 -0.46022 0.15623 -0.13912 0.68256 0.018496 0.79349 0.27651 -0.14859 0.023309 0.0097901 0.038041 0.40991 -0.49058 0.080156 -0.37037 -0.72324 0.33551 -0.28359 0.66422 0.16365 -0.17874 -0.58059 -0.093935 0.054502 0.44133 0.23611 -0.27772 -0.11742 0.09247 0.041815 0.55915 -0.07914 -0.16498 -0.41935 -0.090221 0.56737 0.1894 0.72936 0.10541 -0.33667 -0.4756 0.50422 -0.095329 0.14965 -0.12517 
thalaivar 0.07328 -0.50339 -0.12082 -0.79747 -0.067229 0.19224 -0.62628 -0.29477 0.25825 -0.1348 -0.087228 -0.1267 -0.078391 0.13777 0.44913 -0.056358 -0.38343 0.65633 0.90185 -0.27403 0.68243 -0.18301 -0.23558 -0.044011 -0.15331 0.31501 -0.081593 -0.11618 -0.30813 -0.054432 0.16573 -0.53854 -0.59049 0.13899 0.3108 -0.21042 0.35863 0.62655 0.0090906 0.045485 0.10699 0.28116 -0.073468 0.1733 0.14575 -0.099296 0.32836 0.77142 -0.8068 -0.045706 -0.29566 0.17757 0.033121 -0.079248 0.0053103 -0.0047052 -0.055999 0.83359 -0.012523 -0.56105 0.054884 0.15109 0.031547 -0.083379 0.085636 0.27951 -0.15679 -0.0043144 -0.020395 -0.074439 -0.59165 -0.1759 0.056665 0.28659 -0.43313 0.40773 -0.099975 -0.080378 -0.096473 -0.10062 -0.41041 -0.10876 0.10928 -0.20294 -0.35123 -0.047091 0.43891 0.66129 0.20732 0.22558 0.78381 0.15343 0.45271 -0.090512 -0.70245 -0.46961 0.67981 -0.29574 -0.53448 0.36333 
semma -0.14319 0.1613 -0.084474 -0.18736 0.048222 0.16288 -0.46727 -0.1701 0.056224 -0.016125 -0.46578 0.40815 0.12004 0.026785 0.24158 -0.17676 0.19889 0.36396 0.32077 0.3385 -0.10918 -0.14634 -0.15808 -0.28008 -0.45316 -0.16308 0.19068 0.36514 -0.6012 0.23017 -0.20751 -0.090033 -0.46335 0.30273 -0.033044 -0.21354 -0.34407 -0.33843 -0.086366 0.1136 -0.21618 0.4549 0.20183 0.51619 0.2769 -0.023945 0.23384 -0.093176 -0.41229 -0.21795 -0.33585 -0.051915 -0.33284 -0.29455 0.22854 -0.10022 -0.21837 0.29261 0.14255 0.39778 0.18934 0.25407 -0.39011 -0.35041 0.24809 -0.42071 0.30075 -0.084182 -0.12745 -0.11256 -0.61079 0.22924 -0.27457 0.53885 0.016653 -0.25398 0.11052 -0.058973 0.21261 -0.50485 -0.15842 -0.10718 -0.2288 -0.1629 -0.098556 0.12542 0.44223 0.17198 0.30773 -0.00064295 0.27267 0.31019 0.21155 -0.035044 0.10073 -0.34059 0.0035483 -0.54034 0.17571 -0.78116 
likes -0.056629 0.3569 0.24296 -0.039018 -0.28831 -0.2616 0.47 0.10217 -0.22581 -0.23014 -0.62143 0.47196 0.18176 0.14155 -0.178 -0.62876 -0.3605 0.31176 -0.10767 0.11345 0.33387 -0.73302 -0.30542 0.15214 -0.36018 0.34705 0.44263 -0.62338 -0.38334 -0.22267 -0.10686 -0.32081 -0.37616 -0.12721 -0.55827 -0.4425 0.17978 -0.039645 -0.65868 0.24782 0.41781 -0.089416 -0.048924 -0.4295 -0.19269 -0.52356 -0.30518 -0.10217 -0.091875 0.32361 -0.22185 -0.58889 -0.081727 0.050461 0.72211 0.421 -0.71056 0.59783 0.0026994 0.78292 0.1604 0.074386 -0.022655 -0.55043 0.25951 -0.082031 -0.60469 0.04131 0.26433 0.24299 -0.53609 0.24422 0.40258 0.27015 0.75212 -0.030116 0.56024 0.28756 0.81748 0.12185 -0.30137 0.50724 0.21806 -0.81585 -0.15348 -0.11541 -0.25162 0.014977 -0.12646 0.034391 0.15049 0.066453 0.26486 -0.2201 -0.048752 -0.29027 0.45812 0.60757 0.065886 0.03189 
rajini 0.051777 0.24205 0.55098 -0.63942 -0.12329 -0.37558 -0.1644 -0.31821 0.1507 0.30305 0.2796 0.11434 -0.14115 0.86707 0.32876 0.15216 -0.25642 0.24393 0.16195 -0.10224 0.34403 -0.041911 -0.027867 -0.22333 -0.42572 0.60064 -0.25065 -0.39394 -0.344 0.24364 0.15108 -0.33663 -0.27489 -0.025643 0.14007 -0.36742 0.1647 -0.2125 -0.17905 -0.44197 -0.25624 0.35437 0.72116 -0.067479 -0.1161 -0.015858 -0.046743 0.19344 -0.060698 -0.27338 -0.34537 0.30471 -0.29573 -0.20356 -0.07815 -0.25915 -0.46791 0.24567 -0.24189 -0.26536 -0.13455 0.0061807 0.17151 -0.28459 -0.038413 0.13641 -0.048948 0.14781 0.45288 -0.42764 -0.34974 0.29852 -0.753 0.019595 -0.12319 -0.13767 0.18825 -0.16125 0.16791 -0.02539 -0.56548 0.60704 -0.45788 -0.25342 -0.39901 -0.49814 0.37862 -0.16313 -0.23425 0.58287 0.24793 0.00096192 0.31266 -0.17958 -0.13563 -0.12136 0.4464 0.48055 -0.32036 0.54224 
fan 0.19601 0.37219 0.45189 0.16281 -0.23563 0.0065352 -0.1149 0.51468 0.32849 0.45915 0.076517 -0.28488 0.16553 -0.42973 -0.074559 -0.44721 -0.081442 0.72293 0.19112 -0.1793 0.24279 0.30914 0.085053 0.20579 0.079596 -0.085572 0.1702 0.14654 -0.95474 0.2038 0.11142 -0.21985 -0.51312 0.11448 0.42472 0.058245 0.55473 -0.016306 -0.4777 -0.011258 -0.17035 -0.41204 0.3207 0.090907 -0.25429 0.31041 -0.29989 -0.40747 -0.44374 0.33152 -0.13668 0.10165 -0.03827 -0.39774 0.20346 -0.095712 -0.65084 -0.30826 -0.032722 -0.1021 0.0082313 0.44696 -0.090531 -0.27702 0.3425 -0.26952 -0.23251 0.45825 0.74934 0.019901 -0.60946 0.15864 -0.35837 0.0090182 -0.29806 0.077593 -0.19988 -0.27084 0.42907 -0.1937 -0.29558 0.52625 -0.038056 -0.18524 -0.53079 0.10932 0.50861 -0.3937 0.24651 -0.5528 0.33863 -0.042318 -0.75118 -0.41723 -0.27896 0.66959 0.47809 0.47733 -0.19122 0.10517 
anna -0.19823 0.53763 -0.22594 0.23727 -0.045955 -0.22579 -0.45741 0.50688 0.011624 -0.11756 -0.10557 0.11341 0.1366 0.15981 -0.33371 -0.33927 0.14555 1.1843 0.57163 0.28139 0.11096 0.05397 0.31569 -0.33313 -0.021847 0.37031 0.64808 -0.21383 -0.59726 0.095905 0.037546 -0.41179 -0.57478 0.61947 0.16093 -0.31135 0.34638 -0.22759 -0.18561 -0.29766 0.2211 0.1639 0.065836 0.26581 -0.12595 0.15952 -0.2117 -0.52618 -0.4014 -0.45294 -0.088511 0.10495 -0.36834 0.23232 0.23944 -0.97536 -0.30413 0.20641 0.28353 0.44095 -0.053602 0.037964 -0.29957 -0.19597 -0.043278 -0.25835 -0.31246 0.17767 0.18661 -0.10338 -0.96947 0.65384 -0.27032 -0.10725 -0.6221 -0.45215 -0.10765 0.093366 0.75899 -0.074696 0.078716 -0.023529 -0.15054 -0.086179 -0.2025 0.23481 0.62477 0.56455 0.11738 0.013057 -0.11592 0.0034327 -0.89261 0.048744 -0.41882 0.43883 0.29049 -0.10678 -0.05063 0.05244 
love 0.044139 0.096281 0.10448 -0.30477 -0.34611 0.18708 -0.55175 0.14344 0.0239 -0.025351 -0.35915 -0.20979 0.28655 -0.034604 -0.072482 0.12233 0.11415 0.64835 0.15091 0.063971 0.39165 -0.15468 0.076971 -0.34708 -0.54069 0.052983 0.46017 0.014438 -0.30895 0.11999 -0.84477 -0.65221 -0.0020835 0.36594 0.052622 -0.10461 0.37444 -0.11173 0.11536 0.37417 0.030097 0.45881 0.55592 0.046979 0.054745 0.12594 -0.084237 -0.035922 -0.32359 -0.20809 -0.39636 -0.12739 0.23139 0.11835 0.18151 -0.45801 -0.15804 -0.003977 -0.14214 0.21453 -0.16779 0.75394 0.35754 0.05466 0.38586 -0.22735 -0.11655 0.058613 0.2081 -0.17016 -0.2017 0.32847 -0.59981 0.061139 -0.36234 -0.29352 -0.27195 -0.17269 0.66937 0.038371 -0.27147 0.076806 -0.13084 0.16318 -0.17315 0.093093 0.66317 -0.46685 0.47975 0.048842 -0.60755 0.026542 -0.31343 0.10948 -0.46637 -0.13284 0.57546 0.068999 -0.16916 -0.2542 
nu -0.14499 0.32323 -0.030104 0.067273 -0.12858 0.057579 0.011166 -0.30697 0.24301 -0.23009 -0.15848 0.54752 0.12586 0.13518 -0.21238 0.27838 -0.070993 0.28853 -0.154 -0.15659 0.0715 0.40246 -0.0053851 -0.26957 -0.45572 0.39383 0.39739 -0.12451 -0.09608 -0.10444 0.23351 0.08084 -0.15542 0.32347 -0.071475 -0.19531 0.29218 -0.060425 0.17031 0.14513 0.17839 0.77084 -0.24281 0.35459 -0.40954 -0.10258 0.036781 -0.42456 0.094698 -0.22745 -0.65589 -0.62459 -0.13562 -0.15919 0.10357 0.16614 0.10601 0.40518 0.20371 0.19079 0.28721 0.05386 0.065372 -0.29203 0.069506 -0.49884 -0.0032837 -0.2157 0.12749 -0.22319 -0.86851 -0.027845 -0.14257 0.32827 0.21189 0.036277 -0.47908 0.15728 -0.02981 0.20435 -0.062439 0.042352 0.24292 -0.75276 -0.57148 -0.2676 0.49217 0.092819 -0.14052 0.49142 0.1646 0.20447 -0.066351 -0.024405 -0.38344 0.18363 0.42133 0.032093 0.34735 -0.23159 
neraya 0.48868 0.20004 0.26415 0.53803 0.53981 0.45983 -0.80413 -0.28451 -0.48177 -0.069285 0.068195 0.64516 -1.0804 0.0012872 -0.17498 -0.48085 0.43719 0.90252 -0.3958 0.58748 0.53325 0.028652 0.44655 -0.041926 -0.5176 0.40377 0.12232 -0.22668 0.11721 -0.78882 0.484 -1.0831 -0.52672 0.63037 -1.1791 -0.056114 -0.010692 0.070123 -0.78955 0.50905 0.26594 0.33506 0.61743 0.48309 0.25446 0.21726 0.014305 0.17 0.57611 0.23341 -0.30921 -1.0661 0.38063 -0.8049 1.0066 -0.9637 -0.57529 0.64665 -0.41201 0.36938 -0.0096089 0.17671 0.36328 0.036992 0.43332 0.1073 -0.12634 -0.0067557 -0.11792 -0.029537 -0.20518 0.99792 -0.054144 0.53957 0.28339 -0.37545 0.14299 -0.064044 0.61128 0.63647 -0.44946 0.75306 0.47037 -0.22609 0.48155 -0.60069 0.38259 -0.42485 0.38227 -0.83176 -0.39819 -0.36502 0.12925 0.097502 -1.146 -0.15559 -0.2775 0.24002 0.032017 -0.03108 
petta 0.18476 0.11736 0.17058 -0.21309 -0.46349 0.42574 -0.25895 -0.21152 0.11678 -0.33565 -0.46361 0.0024052 -0.065068 0.41297 0.24755 -0.44773 -0.15038 0.66859 0.27242 -0.46634 0.24445 -0.12714 -0.17673 -0.013482 -0.31663 0.3184 0.32536 0.15108 -0.41764 0.35314 0.064416 -0.97956 0.20991 0.17803 -0.26263 -0.48157 0.11614 -0.036052 -0.74777 0.15522 -0.10049 -0.04036 0.017839 0.63199 0.26831 -0.52427 -0.032537 -0.051125 -0.33997 -0.21509 -0.1806 0.12782 0.064308 -0.018737 0.44931 -0.0097716 -0.10103 0.3268 0.33277 -0.18807 0.25779 0.14607 0.36924 0.3178 0.10344 -0.093754 -0.28254 0.48581 -0.44337 0.10223 -0.70138 0.0027505 -0.075398 -0.06692 -0.26344 0.00045749 0.10381 0.064079 0.1834 0.061361 -0.54977 0.60286 0.021012 0.14639 0.047223 0.04984 0.052213 0.38012 -0.17498 0.25592 0.47671 0.099093 0.22932 -0.098235 0.36324 -0.14684 0.24056 -0.025267 0.056317 0.17671 
ajith 0.20243 -0.10466 0.56873 -0.077205 0.6466 -0.16581 -0.37267 0.044736 -0.1621 0.01199 -0.35799 0.24277 0.12379 0.50909 -0.29758 0.58222 -0.021471 0.64276 0.14881 -0.031977 0.13549 0.11546 0.044818 -0.27789 -0.45896 -0.078135 -0.15795 -0.21828 -0.36368 -0.44208 -0.22739 -0.4833 -0.06012 -0.60987 -0.19217 -0.059628 0.85198 -0.19837 0.19156 -0.04054 0.085909 -0.026068 -0.0051581 0.13217 0.05268 0.60013 -0.10762 -0.20869 0.21264 0.37368 -0.30948 -0.032569 -0.1479 -0.042121 -0.094731 -0.096819 -0.45041 -0.16719 0.10797 0.0029994 0.72347 -0.029067 0.20367 -0.17342 -0.422 0.3114 0.071191 0.25316 0.2443 0.26629 -0.30833 0.63595 -0.64949 0.29128 -0.074653 -0.052603 0.35788 -0.0089317 0.32883 0.39729 -0.031355 0.20587 0.0027757 0.0099774 -0.68851 -0.41923 0.37143 -0.20897 0.15959 -0.29982 0.1688 0.30305 -0.063765 -0.27668 -0.13352 -0.086502 0.75797 -0.11792 -0.06923 0.026537 
vijay -0.057909 0.31618 0.031407 0.2553 0.25968 0.048072 -0.44302 -0.035625 0.045078 0.19076 0.16216 -0.29248 0.21999 0.44893 -0.24661 -0.5245 0.50987 0.76264 -0.075289 -0.33625 0.19508 0.094913 -0.064367 0.37083 -0.43772 -0.050411 0.158 0.25162 -0.41385 0.087729 0.25477 -0.40584 -0.3178 0.31271 -0.23951 -0.033247 0.61495 -0.14227 0.11786 0.14832 0.11227 0.21121 -0.04935 -0.09594 -0.41964 0.46381 -0.43117 -0.26957 -0.4228 0.026086 -0.013686 -0.039244 0.022708 -0.025097 -0.26989 -0.21983 -0.77131 0.054799 -0.0028837 -0.13931 -0.011063 0.19218 -0.24719 -0.044 0.22885 0.22011 -0.23375 0.2157 0.18851 0.28776 -0.57989 0.16521 -0.17305 0.11414 -0.52546 0.23485 0.2579 -0.45961 -0.024606 0.010564 -0.26953 0.40556 0.17964 -0.015384 -0.41756 0.14979 0.24528 -0.10849 -0.20468 -0.5528 0.16781 0.29662 -0.25524 0.047066 0.51371 -0.15729 0.22216 0.52224 0.038349 0.36746 
a -0.40035 -0.12056 0.33334 -0.28878 -0.46202 -0.15056 0.10678 -0.30549 0.12354 0.54248 -0.15083 -0.33356 0.32542 0.26827 0.094199 0.12858 0.27937 0.54606 0.48149 0.2158 0.53625 0.16924 -0.29007 0.072575 -0.1185 -0.40469 -0.30375 -0.3879 -0.4411 -0.19433 0.22798 -0.22628 -0.45256 -0.21499 -0.11074 -0.16672 0.50886 0.21186 -0.42922 -0.35069 0.19319 -0.090876 0.50514 -0.16745 -0.23736 0.13334 0.1264 -0.14953 0.32432 -0.22187 -0.59249 -0.22151 0.26095 -0.012742 0.4126 -0.35443 0.033848 0.38418 -0.054181 0.22086 0.047322 0.12369 0.18387 0.36082 0.17017 -0.14479 0.34294 0.15722 0.11365 -0.60454 -0.60849 0.23211 -0.09067 -0.16406 0.257 0.2436 -0.33343 -0.23366 0.050949 0.04984 -0.059507 0.39572 -0.070394 -0.61111 -0.32097 -0.11676 0.30335 -0.36865 -0.10361 -0.054136 0.15384 0.50105 -0.089177 0.22382 0.14064 -0.5314 -0.22113 0.34096 0.17103 -0.44584 
and 0.00024543 0.23714 -0.31922 -0.46153 0.029502 -0.2933 0.0067899 0.10811 -0.30338 0.36905 0.40198 -0.11955 0.77316 0.0014591 -0.2477 0.067887 0.54986 -0.020149 0.15086 0.26747 0.29086 -0.12695 0.010627 -0.26142 -0.068883 0.073299 -0.23892 0.089061 -0.48344 0.26036 0.28189 -0.053778 -0.43759 0.066261 0.013451 0.041571 0.36519 -0.47329 0.028168 0.16159 0.46348 -0.1987 -0.018749 0.32715 0.34625 0.43474 -0.39408 -0.13182 -0.52868 -0.23831 -0.31428 -0.024859 0.11448 -0.34221 0.12956 -0.5097 0.059252 0.09717 -0.010726 -0.090272 0.30268 -0.24949 0.3182 -0.25584 0.19025 0.055721 -0.73743 0.20918 -0.068132 0.08838 -0.49215 0.27436 -0.065172 0.098981 0.22593 0.13946 0.64175 0.13314 0.60389 -0.44108 0.083184 0.27541 0.26884 -0.0052406 0.45245 -0.21389 1.101 0.03811 0.070773 -0.078711 5.4411e-05 0.43366 0.54508 0.2296 -0.17063 -0.39313 0.11594 0.26628 0.29577 -0.24932 
star 0.57384 0.14879 0.087395 -0.50866 0.1294 -0.37329 -0.95592 -0.18632 0.12565 0.043939 -0.042634 0.42098 0.48624 0.16713 -0.39159 -0.28734 -0.42078 0.30396 0.73716 -0.52208 0.5734 0.40918 0.08466 -0.093492 -0.48169 0.095561 0.20739 0.5502 -0.36398 -0.1746 -0.057692 -0.58174 -0.25254 -0.23478 -0.16722 -0.58526 0.0041701 -0.0008968 -0.38482 -0.55982 -0.24524 -0.1083 0.53081 0.36252 0.023375 0.33855 0.12873 0.41519 -0.93663 0.017687 -0.50045 0.19155 -0.19959 -0.39144 -0.15551 -0.54348 -0.43394 0.054834 0.10912 -0.62374 0.084903 0.28877 -0.046944 -0.33949 0.052274 0.18849 -0.3313 0.3941 -0.020113 0.36037 -0.25731 0.19628 -0.65886 0.03421 -0.43556 -0.43961 0.39402 -0.12106 0.39809 0.15846 0.024599 0.71706 0.22145 -0.35654 0.10923 -0.13228 -0.0028009 0.78227 0.2098 0.6414 0.32184 0.068905 0.70632 -0.33041 -0.49466 0.032592 0.4589 0.35732 -0.09249 0.63526 
thalaiva -0.13686 -0.60268 -0.029407 -1.0161 0.058597 0.2267 -0.62813 -0.53283 0.098421 -0.033415 -0.35801 -0.2122 0.0078599 0.22592 0.26597 0.19745 -0.17249 0.64181 0.80278 -0.19023 0.94912 -0.40164 -0.19467 -0.10208 -0.21195 0.35128 -0.13858 0.074639 -0.35944 -0.06762 0.0061472 -0.35748 -0.23589 0.29704 0.26508 -0.38476 0.082657 0.46646 0.058571 0.20098 0.21075 0.50658 -0.054703 0.27722 0.27827 -0.2128 0.5405 0.61956 -0.94981 -0.21453 -0.31129 -0.10024 0.0084116 -0.36267 0.10608 -0.42728 -0.16513 0.84334 -0.32433 -0.36232 -0.081364 0.46728 -0.23407 -0.055229 -0.070603 0.015951 0.064626 -0.30238 -0.024845 -0.18363 -0.63567 0.028382 0.19528 0.3181 -0.7866 0.47092 -0.048126 0.084772 0.046533 -0.23931 -0.25676 0.057 0.12441 0.090929 -0.18794 0.068997 0.73997 0.8151 0.57736 0.088286 0.5673 -0.091682 0.3975 0.087685 -0.95561 -0.40156 0.37676 -0.15489 -0.60723 -0.083668 
sema -0.19884 0.59054 0.173 -0.034021 0.44552 0.022497 -0.59103 -0.18223 0.11552 0.19452 -0.31353 0.60227 -0.0064358 -0.015763 0.2801 -0.71082 0.098758 0.60827 0.057173 0.065431 -0.2567 -0.16183 0.28953 -0.43526 -0.24124 0.11753 0.39269 0.51914 -0.33101 0.05445 -0.032569 -0.38582 -0.30067 0.32103 -0.031756 -0.34711 -0.0068346 -0.36422 -0.21632 0.43553 -0.11288 0.43758 0.4306 0.47873 0.58979 0.028023 0.092716 -0.28931 -0.16507 -0.32556 -0.58771 -0.16637 -0.4685 -0.49707 -0.060819 -0.082818 -0.31309 0.31972 0.19408 0.28685 0.62157 0.14963 -0.0047275 -0.4449 0.12093 -0.23467 0.45219 0.18383 0.29288 -0.30379 -0.61393 0.2151 -0.27305 0.04038 -0.24636 -0.62727 -0.27171 -0.54727 0.48288 -0.17932 -0.026958 -0.15092 -0.16034 -0.096716 0.080412 0.20987 0.51245 0.019515 0.25423 -0.059837 0.025149 0.07911 -0.11113 0.12824 -0.06655 -0.40321 0.38874 -0.75798 0.1902 -0.84271 
u 0.15234 -0.13402 0.22369 -0.54274 -0.48804 0.1467 -0.20421 0.15986 -0.19182 -0.021078 -0.35587 -0.08592 0.48521 -0.4221 -0.49227 0.14713 -0.12316 0.46929 0.047704 0.10887 0.20713 -0.4536 0.29173 0.08537 -0.21158 -0.047451 0.11987 0.20316 0.063011 -0.12648 -0.35634 -0.42655 -0.35971 0.019163 0.076993 0.22941 0.82734 -0.11266 0.18715 0.054137 0.35099 0.75658 0.46467 0.17273 0.21718 -0.21034 0.27813 -0.14363 -0.50586 -0.47255 -0.58223 -0.0070982 0.30234 -0.10244 0.41868 -0.46533 -0.31878 -0.14267 -0.32079 -0.36877 -0.056212 0.37022 0.31015 0.29627 0.47227 -0.54435 0.033829 0.15549 0.29917 -0.089661 -0.19482 0.59699 -0.66025 -0.013162 -0.071135 0.21961 -0.38279 -0.18096 0.30802 -0.45097 -0.060221 0.45585 0.049556 -0.21197 0.033025 -0.17739 0.24977 -0.29302 0.36054 -0.051164 -0.33788 0.3586 -0.43259 0.39159 -0.3634 -0.19251 0.21455 0.22826 0.10115 -0.27116 
is 0.1713 -0.12488 0.21137 -0.062455 -0.4105 -0.17603 -0.067844 -0.21774 -0.10094 -0.18315 0.12436 -0.21732 0.42237 0.069029 -0.029088 -0.071572 0.24438 0.41511 0.29202 0.034749 0.1006 -0.11235 -0.3937 0.085385 0.27977 -0.22421 0.0089241 -0.23943 -0.39784 0.12069 -0.13757 -0.88321 -0.236 -0.37129 -0.39123 0.13171 0.36315 -0.71818 -0.18134 -0.33481 -0.027807 -0.27457 0.30845 0.65831 0.13299 0.056599 0.18764 -0.038325 -0.049793 0.1518 -0.48236 -0.19871 0.58435 -0.18062 -0.11337 -0.57346 -0.16306 0.35049 -0.22366 0.57169 0.5504 -0.021347 0.064395 -0.26751 0.44246 -0.089576 -0.25584 0.44188 -0.24995 0.13562 -0.6802 0.11324 -0.49221 0.15843 0.20942 -0.048474 0.017185 0.068304 0.26206 -0.13067 -0.10607 0.27872 0.013992 -0.80194 0.12708 0.19835 0.049886 0.11641 -0.12686 0.38727 0.073904 0.24051 0.48915 0.041958 -0.056917 -0.027284 0.37285 0.13189 0.086785 0.10468 
intha 0.053174 -0.01957 0.11237 0.10655 0.087436 0.013406 0.016395 -0.36545 -0.043176 -0.05539 0.12986 -0.069839 -0.0064 0.1086 0.11645 -0.17255 -0.20219 0.56731 0.23959 0.026093 0.016761 -0.034714 0.24209 0.56455 0.26947 0.38348 0.11451 -0.668 -0.22074 0.20791 0.30505 -0.056065 0.15789 0.22127 -0.2277 -0.20334 0.048723 -0.17164 -0.24049 -0.070143 -0.0023954 0.40916 -0.43254 -0.39567 -0.025073 0.12281 -0.36073 -0.13318 -0.071296 0.31342 -0.28532 -0.36019 -0.13506 -0.21791 0.35918 -0.14782 0.27208 -0.28268 -0.6618 0.12679 0.22659 -0.24064 0.48039 0.37464 -0.36101 0.32527 0.0010003 0.0065748 0.039818 0.35 -0.98329 -0.0072763 -0.33717 0.48216 -0.26732 -0.40152 -0.022397 -0.41702 0.271 -0.080769 -0.20954 -0.20985 0.038501 -0.42239 -0.26973 -0.42377 0.074308 0.27045 -0.32081 -0.19338 0.57479 0.69617 0.0037449 0.55001 -0.33367 -0.34218 0.56578 0.47828 0.058857 -1.0026 
you -0.19345 0.12188 0.10272 -0.65903 -0.33854 -0.28527 -0.37139 -0.086679 -0.27703 0.45954 -0.2966 -0.14596 0.31074 -0.018235 -0.42551 -0.335 -0.062943 0.86576 -0.31615 0.17458 0.18237 -0.61482 0.20882 -0.15887 0.055958 -0.51822 0.2464 0.35058 0.20192 0.32884 -0.44332 -0.77907 0.092428 -0.15502 -0.034771 0.029819 0.87337 0.013369 -0.22953 0.39046 -0.090484 0.11663 0.17022 0.18727 0.30572 -0.39506 -0.09401 -0.38811 -0.30559 0.18633 -0.11344 0.059669 0.3049 -0.35543 0.45434 -0.086636 -0.10998 -0.094845 -0.32772 -0.19176 0.52662 0.77523 0.39004 0.89006 0.34166 -1.0417 -0.070078 0.46696 0.39161 -0.15155 0.32337 0.37488 -0.46282 0.29938 -0.040178 -0.2846 -0.22093 -0.19412 0.58635 -0.15349 -0.4843 0.32497 0.4703 0.0070323 -0.39241 -0.24924 0.50171 -0.49297 0.52373 -0.08501 0.14309 0.17443 -0.093156 0.28663 -0.37199 -0.12946 0.64594 -0.20061 -0.2245 0.023983 
for 0.060035 -0.11713 0.22045 -0.33274 -0.16079 0.27794 0.1076 0.23582 0.064617 -0.25788 -0.10724 -0.21234 0.56611 -0.16352 0.1543 0.23828 -0.32867 0.16515 0.43612 0.29825 0.43611 0.39611 -0.35066 0.044203 -0.35645 0.017475 0.144 0.14431 -0.02087 -0.13011 -0.0072126 -0.6944 -0.18889 -0.45302 -0.11919 0.11501 0.71531 0.095685 -0.27245 -0.33576 0.21133 0.25374 0.27906 0.052825 0.45385 0.38717 -0.32367 0.25349 -0.20766 0.54159 0.087938 0.019833 0.084297 0.16775 0.52459 -0.13491 -0.31647 -0.098536 -0.17809 0.18404 0.58132 -0.053802 0.16808 -0.16425 0.52864 -0.67493 -0.19439 0.12527 0.0090525 0.16592 -0.49014 0.39382 -0.35202 0.060827 0.058563 0.11567 0.30168 0.10213 0.56961 -0.42843 0.082236 0.073891 0.46984 -0.27017 -0.29423 0.23879 0.46593 0.024738 0.16001 -0.39196 0.36194 0.25542 0.50697 0.27509 0.23939 -0.0022141 0.1458 -0.073447 0.30901 0.21962 
enna -0.41244 -0.34597 0.012846 0.48242 0.42497 0.2021 0.069381 0.086142 0.47684 0.11655 0.4411 0.075273 -0.043183 -0.28997 -0.82269 -0.27337 -0.15094 1.0826 -0.15514 0.058482 0.098987 -0.52841 0.025932 -0.61814 0.19483 -0.037705 0.56379 0.26224 -0.36229 0.18817 0.253 -1.0914 -0.50585 -0.0076484 -0.75423 -0.072492 0.086849 0.12342 0.40368 -0.3262 0.31763 0.33868 0.21621 0.40873 -0.13865 -0.095941 0.28392 -0.019039 0.010248 0.54099 -0.51006 0.035277 -0.63835 0.098177 0.57961 -0.28688 0.49487 -0.14347 0.25839 0.14786 0.10938 -0.037589 -0.33684 -0.38302 -0.60169 -0.92138 -0.3248 -0.21429 0.22749 -0.58782 -1.0049 0.18558 0.053528 0.092869 0.26085 -1.0365 -0.45476 0.12315 0.25199 0.75464 -0.41466 0.59095 0.083578 -0.45641 -0.13631 0.16341 0.32064 0.33103 -0.38734 0.20709 0.20078 0.060881 -0.65773 -0.090152 0.092028 -0.08548 -0.011225 -0.21941 -0.11667 -0.69479 
but -0.35345 0.26262 0.19409 0.19686 -0.13297 -0.2964 -0.042567 0.082125 -0.029765 0.22888 0.21399 -0.15901 0.2545 0.081199 -0.134 -0.49602 -0.0016458 0.33808 0.014998 0.13945 0.37126 0.19453 0.099079 -0.087601 -0.16779 0.54715 -0.084331 -0.029376 -0.36785 0.1959 -0.19134 -0.474 -0.52123 -0.059795 -0.48879 0.21785 0.32823 -0.34633 -0.14345 0.3747 0.072071 -0.37837 -0.15436 0.26188 -0.036199 0.66904 0.22748 -0.47983 -0.030391 0.10679 -0.29401 -0.035057 0.18469 -0.38336 0.1709 -0.31632 -0.092981 -0.31096 0.17519 0.73179 -0.11216 0.10248 -0.30618 -0.030201 0.26977 -0.36919 -0.1131 0.15448 0.41401 0.043488 -0.41677 0.22642 -0.38703 0.52978 -0.047893 -0.13816 -0.20088 -0.50359 0.05655 0.51073 -0.51628 -0.069333 -0.061401 -0.49323 -0.31961 -0.018232 0.062212 -0.57741 0.34432 -0.25458 0.15815 -0.39117 0.34542 -0.15291 -0.052941 -0.34287 0.75382 0.28326 0.015526 0.0078018 
than 0.17438 -0.60348 -0.049824 0.21656 0.3145 -0.31343 -0.32287 -0.025541 -0.023799 0.031398 -0.067608 -0.2101 -0.58654 0.039443 0.060747 -0.49845 -0.23123 0.26193 0.35981 0.21484 0.14723 0.64842 -0.0071856 0.14967 -0.53821 -0.024491 0.19294 -0.54132 -0.30444 0.47464 0.25035 -0.50851 -0.84831 -0.31315 -0.34499 -1.0203 -0.28109 0.29508 -0.22719 -0.02304 -0.32971 0.28317 -0.27592 -0.056242 -0.28329 -0.21607 -0.55281 -0.23363 -0.12949 -0.44097 -0.0048302 0.13301 -0.036774 0.018574 0.44991 0.042479 0.20666 -0.52047 -0.6286 -0.089343 0.25798 -0.19043 0.30245 0.13927 0.059663 0.37078 -0.82072 0.35717 -0.014604 0.11815 -0.74315 0.099714 -0.56638 0.38902 0.021172 -0.19665 -0.39376 -0.53849 -0.23681 0.59484 0.24817 -0.37334 -0.21576 -0.66349 -0.76649 0.43038 0.42116 -0.20206 0.37145 0.014565 0.64222 -0.10928 -0.44011 -0.21579 -0.85494 0.19831 0.27088 0.20298 -0.31209 -0.5656 
in 0.42565 -0.012214 -0.20545 -0.27131 0.14081 0.063504 -0.11024 0.15673 -0.083808 0.075315 -0.23644 -0.10085 -0.005634 -0.4492 0.13874 0.30065 0.042791 0.49355 0.24145 -0.097096 0.72971 -0.69703 0.24989 0.33299 0.20759 -0.22365 0.16838 -0.072092 -0.79338 0.14052 -0.27645 -0.40038 -0.34622 -0.43958 0.088631 -0.34681 0.60271 -0.31481 -0.036803 -0.20328 -0.067966 0.45652 0.039474 0.55414 0.30211 0.1738 -0.15678 -0.41068 -0.05763 -0.17676 -0.37951 -0.68435 0.50882 0.016038 0.18182 -0.32618 -0.053401 0.23688 0.043661 0.30725 0.20109 -0.11682 0.32766 -0.082893 -0.040292 -0.36934 0.085473 0.74139 -0.25026 0.78497 -0.16447 0.094303 -0.017453 -0.31388 0.09859 -0.19516 -0.10635 -0.073093 0.31865 -0.19009 -0.29419 0.85124 0.16943 -0.27536 -0.24332 -0.11581 -0.067384 -0.35153 0.25996 -0.44882 0.33413 0.19078 0.6345 0.60594 -0.0093379 0.097582 -0.23856 0.59385 0.70781 -0.23502 
views -0.32444 -0.018502 0.15376 0.022323 0.038866 -0.32187 -0.23811 -0.032488 -0.43642 0.012606 -0.91002 0.26192 -0.19249 -0.17579 -0.42367 -0.6187 -0.0082755 0.51187 -0.10027 -0.18772 0.51412 -0.39525 -0.22465 0.37289 -0.49409 0.7179 0.34082 -0.36055 -0.56884 0.011584 -0.23661 -0.54486 -0.45709 -0.163 -0.43766 -0.15147 -0.07223 0.11972 -0.051961 0.060121 0.13918 -0.050188 -0.081268 -0.13816 -0.075375 -0.49948 -0.24393 -0.36337 0.3164 0.052784 -0.2634 -0.39336 -0.031242 -0.30022 0.70865 -0.040281 -0.37787 0.44868 0.15772 0.54368 -0.086759 0.41553 -0.092389 -0.23157 0.31696 0.08126 -0.37025 0.14718 0.53683 0.20639 -0.74554 0.55087 0.80947 0.40773 0.58663 0.24093 0.37105 0.053463 0.34492 0.26145 -0.13706 0.4158 0.71057 -0.26268 -0.3191 -0.32344 0.082753 -0.039493 0.20338 0.35427 0.367 -0.27046 0.38249 -0.21961 -0.00801 -0.57879 0.067021 0.57972 -0.18348 -0.0026701 
dialogue -0.29838 0.45076 0.38636 -0.18302 -0.28598 -0.2963 -0.091539 -0.37698 0.08875 0.23895 -0.59734 0.32554 0.10328 0.29415 0.25358 -0.12443 0.31922 0.43978 0.14566 -0.25143 -0.16962 0.10659 -0.0024245 0.50497 -0.56516 -0.17403 0.0070175 0.24298 0.46807 -0.20172 0.304 -0.67064 -0.18794 0.018999 0.070328 0.41285 -0.067875 -0.017214 -0.58708 0.74357 0.18902 0.023572 0.53497 0.37916 -0.094626 0.028388 -0.023279 0.035627 -0.13468 0.3335 -0.19999 -0.44499 0.22145 -0.16678 -0.14731 -0.075909 -0.61427 0.17918 0.199 -0.10984 -0.025916 -0.29961 0.61118 -0.14367 -0.002583 0.47776 0.56838 -0.48578 -0.084758 0.22695 -0.54389 0.58679 -0.26862 0.69464 -0.43096 -0.42918 -0.46358 -0.10051 0.6806 0.15443 -0.22808 0.24898 -0.07276 -0.58526 -0.34211 0.36351 -0.42079 0.47125 0.25988 -0.17325 0.4028 0.28073 -0.04296 0.17613 0.70171 0.46137 0.039389 -0.093667 0.21502 -0.31112 
to 0.088459 0.13195 0.35045 -0.62358 -0.10172 -0.44068 0.21673 0.38496 0.015976 -0.25234 -0.024627 0.18713 -0.32432 -0.26985 -0.15689 -0.13691 0.20879 0.62192 0.17437 0.35308 -0.01894 -0.47823 0.0138 -0.075128 -0.17038 -0.69925 0.092322 0.18073 -0.18583 0.2824 -0.11458 -0.84341 0.070483 -0.42365 -0.13562 -0.063216 0.45888 -0.41626 -0.092777 -0.14129 0.8115 0.33553 0.0060734 0.72196 -0.24523 0.071601 -0.14382 0.26376 -0.46428 -0.38199 0.092479 -0.083838 0.40637 -0.19858 0.25499 -0.11048 -0.086722 -0.17126 -0.27977 0.22576 0.32837 -0.28187 -0.10661 -0.018511 0.34428 -0.45684 -0.16886 -0.16146 0.03728 0.4744 -0.6595 -0.50177 0.17013 0.039726 0.26739 0.017477 -0.432 -0.14664 0.49871 -0.003169 -0.38216 0.14311 -0.14782 -0.033657 -0.21703 0.37586 0.38006 0.16431 0.46401 -0.099089 -0.25341 0.47004 0.40754 0.024875 0.299 -0.26697 0.095464 -0.19145 0.26748 -0.055529 
illa 0.019114 -0.029134 -0.16962 -0.048585 0.010301 0.080145 -0.43604 -0.33376 -0.30096 -0.19198 0.43016 0.34987 0.24011 0.54934 -0.40542 0.76917 0.03614 0.62655 -0.21068 -0.33402 -0.10732 0.59946 -0.19445 -0.38399 -0.72396 0.15113 0.093118 0.37487 -0.64479 0.46569 -0.057572 -0.18427 -1.0337 -0.11843 -0.47241 -0.17325 -0.20186 -0.22636 0.41091 0.2656 0.19696 0.36515 0.40995 0.35446 -0.31694 0.2256 0.036566 0.064261 -0.31999 -0.050455 -0.20271 -0.32958 -0.31049 -0.11904 0.047426 0.32649 0.3486 -0.15727 -0.18045 -0.048646 -0.24295 -0.15965 0.56635 -0.40768 -0.16721 -0.0077604 -0.48045 0.19157 0.47155 0.23243 -0.1381 0.6553 0.043466 0.49522 0.12259 -0.19107 -0.82631 -0.30383 -0.082383 0.3517 0.0079808 -0.23898 -0.211 -0.16417 -0.49401 -0.15919 0.25224 -0.1351 0.1316 -0.17893 -0.11116 0.42941 -0.29121 -0.2074 -0.43424 -0.54808 0.30194 0.19187 -0.13516 -0.26 
viswasam 0.20979 0.1744 0.31163 -0.40377 0.24099 0.36073 -0.37542 0.17744 -0.027731 0.45853 -0.71702 0.012861 0.44368 0.3898 -0.34366 0.041862 -0.10055 0.50978 -0.15264 -0.76969 0.052267 0.26656 -0.50767 -0.012293 -0.57244 -0.037537 -0.10651 -0.0054192 -0.1693 0.57704 -0.5802 -0.61685 0.27204 0.39322 -0.26367 -0.63407 0.30773 0.10955 -0.16959 0.68401 0.49006 -0.067305 -0.09488 0.71629 0.33618 -0.73032 -0.089005 -0.21853 -0.044636 0.33836 -0.82362 -0.011166 -0.46358 -0.19438 -0.050463 0.21693 -0.26891 -0.024062 0.28183 0.32712 0.20773 -0.079492 0.40394 -0.088413 0.66805 0.34584 0.069578 0.31843 0.63557 -0.077618 -1.0396 0.15132 0.4661 0.33666 0.35739 0.35455 -0.044629 0.068881 0.28466 -0.27453 -0.62178 0.016501 0.041392 -0.45811 -0.51028 0.30202 0.39267 -0.28212 -0.51623 -0.32723 -0.2714 -0.49727 0.4207 -0.27292 0.47369 0.027044 -0.12254 -0.12391 -0.28686 0.2508 
podunga -0.46717 0.39758 0.084706 -0.2487 -0.375 0.22794 -0.89178 -0.41233 0.54206 0.51454 0.088576 0.45032 0.35355 -0.30658 0.3696 0.10391 0.075128 0.085062 0.13918 -0.021378 0.57235 0.399 0.32208 -0.25203 -0.66848 0.26516 0.31162 0.47299 -0.29284 0.1228 0.24413 0.21955 -0.64195 0.76942 -0.32114 -0.077935 -0.019738 0.24149 -0.40353 0.080997 0.53969 0.47582 -0.12205 0.11271 0.018026 0.36523 -0.25677 -0.29735 0.16588 -0.24926 -0.60136 -0.81899 -0.45003 0.18115 0.065947 0.50936 -0.81596 0.22321 -0.66902 0.60728 0.45737 -0.28183 0.077898 0.1115 -0.06419 -0.46696 0.018909 0.0059387 0.0052699 0.1254 -0.69082 0.11903 -0.00096549 0.55627 0.25261 0.1382 0.012283 0.033889 0.13427 0.22185 -0.54346 -0.78727 0.71294 -0.21101 -0.012437 -0.21459 -0.088194 0.60192 0.0145 0.29906 -0.085822 0.20521 -0.63109 -0.36718 0.22037 -0.39888 0.23955 0.66174 0.15071 0.13415 
irukku -0.76999 0.7638 -0.17025 -0.092499 -0.072633 0.49403 -0.11118 0.49181 -1.0167 0.19116 -0.28361 -0.33584 0.042893 -0.050605 -0.035612 -0.11761 0.018859 0.39259 -0.74789 0.4696 -0.40045 0.29183 0.22446 -0.18607 -0.19499 0.15967 0.37181 0.25873 -0.82851 -0.07304 0.38606 -0.65455 -0.65512 0.089817 -0.49928 -0.59049 -0.12382 -0.27513 -0.34682 0.14043 -0.14507 0.91602 1.2631 -0.68765 -0.04639 0.024446 -0.13748 -0.68581 0.025243 0.44032 -0.22926 -0.4593 -0.2288 0.10795 0.37659 -0.93916 0.15662 0.049317 0.75269 -0.023567 0.87222 0.2401 -0.11489 0.24678 -0.15329 0.079081 0.27713 -0.15963 0.036353 -0.19342 -0.39792 0.28693 -0.058815 0.59977 -0.20646 -0.19626 -0.36424 0.093833 -0.17746 0.20257 -0.45307 -0.29727 0.36619 0.81851 -0.59329 0.10388 -0.39195 0.2139 -0.10292 -0.30122 0.64143 0.055304 0.74857 0.10278 -0.10465 -0.36535 0.3599 0.22044 -0.41898 -0.31102 
from 0.42874 0.27285 0.077515 -0.50719 -0.23652 0.092944 -0.29621 0.50554 0.2286 -0.10713 -0.054293 -0.26021 0.052607 -0.2625 0.0092624 -0.13996 0.074237 0.57877 0.38067 0.27588 0.51348 -0.040477 0.060896 -0.27197 -0.1444 -0.32444 0.48603 0.2042 -1.0968 0.054199 -0.071804 -0.28286 -0.23562 -0.066796 0.18622 -0.066217 0.39108 -0.68375 -0.34209 0.4175 0.51162 0.21209 0.023304 0.46688 0.080729 0.26615 -0.48503 -0.19763 -0.20935 -0.10146 -0.24685 -0.10848 0.30469 0.23102 0.27123 -0.63951 -0.84225 0.014369 -0.40342 -0.18029 0.34665 0.23763 -0.1852 -0.036995 -0.056281 -0.64681 0.17444 0.32284 0.039352 -0.064694 -0.39963 0.42573 -0.8214 0.11714 -0.43203 -0.16635 0.24175 0.38024 0.37899 -0.24802 -0.5783 0.63402 0.36577 0.27828 -0.1462 -0.23179 0.4761 -0.12447 0.3671 -0.44359 -0.018975 0.22948 -0.082975 -0.32747 -0.094668 0.45442 0.15172 -0.19741 0.15575 0.3858 
mela -0.34931 0.21755 -0.032287 -0.1777 -0.14104 0.52888 -0.20691 -0.041929 -0.41212 0.4551 -0.57396 0.25738 0.12786 -0.20144 -0.47191 0.010368 -0.8262 0.39596 0.20101 -0.54095 -0.19065 -0.15987 0.1868 0.17554 -0.62754 0.22465 0.35398 0.15188 -0.21853 0.60464 0.33675 -1.1167 -0.29321 0.37298 -0.36867 -0.13437 0.040779 0.052687 -0.47009 0.064697 0.42403 0.55627 0.14516 1.1455 -0.067963 0.12658 -0.28089 0.12131 -0.10243 0.089148 -0.41837 -0.23232 -0.30893 -0.11348 0.10861 0.11635 -0.27679 0.02378 -0.65958 0.27251 -0.012889 -0.13171 1.0249 -0.22818 0.0088513 0.26742 0.69092 0.21354 0.49246 -0.024805 -0.36618 0.30076 -0.31008 0.23402 0.016624 0.35451 0.58303 -0.30965 0.23028 0.4598 -0.23803 -0.35236 -0.19328 -0.15792 -0.38408 0.085935 0.75936 0.029507 0.15075 -0.34353 -0.25809 -0.28338 0.0031407 -0.42052 0.51214 -0.08255 0.26389 0.11231 -0.4822 -0.34823 
na 0.51284 0.21956 -0.0050208 -0.35065 -0.14598 -0.016248 -1.0543 -0.061515 0.28448 -0.11481 0.072783 0.27261 0.29358 0.57888 0.19094 -0.25261 -0.06405 0.29669 -0.42017 0.12276 0.13819 0.4728 0.33536 -0.17453 0.24107 0.22371 0.30565 -0.50088 -0.23563 0.54267 0.47141 -0.85717 -0.39539 0.2367 -0.6287 0.38054 -0.18145 0.26224 -0.42369 -0.19574 0.57174 -0.24949 0.24813 0.1307 -0.373 -0.27324 0.19556 -0.40547 0.17166 0.090542 0.25738 -0.097701 -0.66972 -0.32175 -0.26888 0.10435 0.080858 0.35212 0.085021 -0.085293 0.10038 0.48723 -0.53381 -0.41379 0.042011 -0.24808 -0.18786 0.66775 0.34807 -0.097732 -0.22681 0.35137 -0.49392 -0.25374 0.2107 -0.72818 -0.75946 -0.019598 -0.18659 0.54112 -0.61088 0.066734 -0.26764 -0.6699 -0.40186 0.7006 0.71146 0.073369 -0.15123 -0.048171 0.93609 0.27311 -0.12621 0.0063485 0.11239 0.29465 0.023849 0.43846 0.33767 0.32291 
nalla 0.066095 0.22574 0.13272 -0.25132 0.18883 -0.047176 -0.39986 0.18944 -0.18032 0.18269 0.071469 0.22938 0.20351 0.73486 -0.13619 0.58929 0.04494 0.55396 -0.12159 0.0011104 -0.21877 0.46992 0.50274 -0.59013 -0.28888 0.22814 0.24084 -0.084305 -0.61992 0.2588 0.43657 -0.24417 -0.28064 0.1035 -0.55945 0.10476 -0.1641 -0.23884 -0.034289 -0.040102 0.1275 -0.1147 -0.14226 0.27621 -0.11343 0.090584 -0.19004 0.075102 0.17944 -0.16806 -0.44455 0.16769 -0.03375 -0.23149 0.22958 0.12873 0.37473 -0.3658 -0.057056 -0.079387 0.089151 -0.11302 -0.047136 -0.62114 -0.16532 0.19685 -0.16571 0.44915 0.82311 0.24586 -0.273 0.31768 0.00029981 0.3873 -0.10109 -0.40976 -0.68811 0.25402 -0.32001 0.21333 0.017623 -0.14471 -0.17016 -0.48728 -0.57027 0.15141 0.56901 -0.17991 -0.20788 -0.26206 0.21774 0.54815 0.2774 -0.01413 -0.17402 -0.315 0.32148 0.030425 -0.062127 -0.35022 
here 0.078502 0.52115 -0.25627 0.15691 -0.62336 -0.22261 -0.32577 0.42263 0.33712 0.18056 0.15881 -0.17177 0.083913 -0.05041 -0.35938 -0.30268 -0.11313 0.96402 0.11298 0.15324 0.57027 0.05607 -0.23727 -0.071924 -0.029866 -0.46519 0.4494 -0.14975 -0.38517 0.26428 -0.10768 0.062091 -0.54225 0.35442 -0.31629 -0.22301 0.15539 -0.16042 -0.21251 -0.70073 1.1745 0.70434 0.16139 -0.34467 -0.14274 0.24517 -0.37381 -0.58124 -0.3748 0.26252 -0.42161 0.19839 0.39379 0.17536 -0.29254 0.044712 -0.37821 0.15723 -0.047545 0.12941 0.3601 -0.03542 0.12471 -0.028066 0.41409 -0.70894 -0.14164 0.5461 -0.061554 0.36164 -0.34877 0.085268 -0.62322 0.14368 0.62459 -0.0050607 0.80654 -0.0079859 0.50922 -0.082054 -0.40934 0.55712 0.28713 -0.13053 0.23101 -0.40313 0.33425 0.099751 0.5396 0.2619 0.11886 0.44301 0.056705 -0.049052 -0.44277 0.085684 0.25393 0.33171 0.011139 0.30784 
dislike -0.2156 0.041297 0.37517 -0.23906 -0.26768 0.056072 0.38755 0.72878 -0.036431 -0.049558 0.080098 0.2776 0.23344 0.18997 -0.24012 -0.36141 0.0076941 0.73886 0.24665 0.067442 -0.4675 -0.88241 -0.57668 0.20599 -0.85594 0.070547 0.48429 -0.4992 -0.23572 0.15051 -0.030871 -0.22848 0.32237 0.50731 -0.44511 -0.023829 -0.20712 -0.2183 -0.73737 0.36524 0.27888 0.22308 -0.62009 -0.23084 -0.54792 -0.33437 -0.39054 0.23891 -0.1423 0.87633 -0.27295 -0.38176 0.11081 -0.38448 0.63068 0.3501 -0.47781 -0.12549 -0.12652 0.2615 0.032427 -0.12486 -0.16424 -0.81157 -0.41494 0.10652 -0.24867 0.017601 -0.20487 0.3384 -0.20383 0.31193 -0.19869 0.51052 -0.088033 0.070422 0.35865 -0.045523 0.42341 0.49678 -0.50684 0.15919 -0.34333 -1.582 -0.41335 0.21426 -0.2534 0.28409 -0.63306 0.38067 -0.0055668 -0.001199 -0.67372 0.33596 0.41615 0.40411 0.32262 0.45789 -0.15542 0.34921 
...... -0.050427 -0.83883 0.23344 -0.51815 -0.016275 0.3202 0.1428 0.096772 0.37289 -0.26066 0.24471 -0.54642 0.088366 -0.17208 0.59437 0.26614 -0.10887 0.53361 0.12388 0.46404 0.55231 0.096035 0.56056 0.29017 -0.28397 -0.16241 0.64388 0.0652 -0.40247 0.020844 -0.029506 -0.37861 0.56 0.59561 -0.64377 -0.68807 0.29581 0.30751 -0.23101 0.063881 -0.18058 0.038903 1.1302 -0.031919 -0.25849 -0.57122 -0.61752 -0.4236 -0.03679 -0.33428 -0.66978 -0.23758 0.080835 -0.09889 -0.050757 0.2515 -0.050804 0.40851 0.0322 -0.084002 -0.3568 -0.29127 0.49728 0.035196 0.1682 -0.17953 0.31194 -0.03963 0.21843 -0.85542 -0.42742 0.66833 -0.40884 0.46251 -0.13641 -0.39585 -0.046461 -0.54981 0.75815 -0.062389 -0.053188 0.095998 -0.48731 -0.55041 0.017648 0.33303 -0.061377 -0.11927 0.66669 -0.13902 -0.14551 -0.010092 0.16169 -0.11553 0.35452 -0.24015 0.66813 -0.092746 -0.22622 0.34048 
dhanush -0.03109 -0.089852 -0.17516 0.23777 -0.27758 -0.62668 -0.26185 0.56783 0.029649 0.015817 -0.060774 0.11495 -0.1495 -0.03285 0.50324 -0.46077 0.7639 0.41593 0.27056 0.13693 0.24181 0.30235 -0.001248 -0.45565 -0.40535 -0.058289 0.029228 -0.10945 0.0044553 -0.3161 -0.13029 0.35786 -0.23039 -0.0065515 -0.38257 -0.32171 0.63687 0.25653 -0.38034 -0.13965 0.48088 0.011763 0.16659 0.54765 0.060129 0.21394 -0.013724 0.042024 -0.45002 -0.35037 -0.24454 0.2194 -0.223 0.15124 0.54375 -0.28081 -0.32196 0.21896 -0.48345 0.3328 0.22122 -0.27983 0.39708 -0.19212 0.095732 0.20294 -0.49013 0.45532 -0.13238 -0.0046132 -0.84075 0.66061 -0.6189 0.10542 -0.25243 0.17645 -0.21652 -0.26921 0.40005 -0.018641 0.3905 0.13718 0.047524 -0.53299 -0.006612 0.029922 0.48589 0.67137 -0.13454 0.15637 0.3688 -0.028962 -0.43472 -0.17567 -0.66115 0.37631 0.22279 0.083601 -0.25647 0.1141 
bigil -0.071681 0.029254 0.32091 -0.32152 -0.33474 -0.079529 -0.3575 0.3641 0.22988 -0.28235 -0.19125 -0.34616 -0.096308 0.39996 -0.047875 -0.14602 0.0020052 0.45114 -0.15887 -0.15594 0.46038 0.61483 -0.30167 0.01865 -0.69874 0.047683 0.31945 0.29654 -0.4358 -0.44023 -0.15395 -0.29115 -0.42507 0.325 -0.73965 -0.18178 0.29514 -0.0083561 -0.22384 -0.20425 0.5264 0.64218 -0.38466 0.22134 -0.15052 0.049157 -0.45518 -0.073803 0.038083 0.15571 -0.14951 -0.085122 -0.37252 -0.20546 0.67648 0.11354 -0.17227 0.12695 -0.072526 0.11777 0.48961 -0.50458 -0.57266 -0.37644 0.05834 0.061491 -0.24849 -0.038302 -0.059206 0.4256 -0.51167 0.18721 0.2262 0.39441 0.223 -0.24479 0.23005 -0.090057 -0.38376 -0.24139 -0.17621 0.50991 0.26351 -0.36809 -0.19517 0.27208 -0.28678 -0.17785 -1.1431 -0.31534 -0.11 0.10729 -0.002736 0.4024 0.001297 -0.25956 0.028512 -0.31892 -0.014725 -0.27013 
pakka 0.13667 0.36325 0.61506 -0.33731 -0.29426 -0.28081 -0.5276 -0.51733 0.38121 -0.18442 -0.21069 -0.50478 0.1465 0.19401 1.2698 0.39198 0.2164 0.079393 0.17264 -0.34897 -0.11232 -0.36686 0.55034 -0.051679 -0.55931 0.12313 0.76173 -0.146 -0.68867 0.37059 0.0064271 -0.64387 0.35572 0.26318 -0.09944 0.20638 -0.46882 0.054716 -0.22303 -0.61554 0.95894 0.56564 -0.071739 -0.35848 0.36379 -0.46852 -0.19458 -0.50042 0.10693 -0.13234 -0.46986 -0.386 -0.76156 -0.48177 -0.032024 -0.49778 -0.44605 0.20861 0.2754 -0.54551 -0.021113 0.34138 0.14309 -0.39581 0.48469 -0.3423 -0.52329 0.60839 -0.21159 -0.12966 -1.009 -0.25313 0.28934 0.52059 -0.54222 -0.41877 0.087918 -0.67029 -0.048383 0.15481 -0.61416 0.49321 0.39606 -0.075138 0.28997 -0.24919 -0.0040291 0.76861 0.1451 -0.34919 0.54532 -0.18901 -0.14578 0.77157 -0.30198 0.33349 -0.099854 0.25444 -0.54068 -0.41152 
thalapathy -0.25096 0.30512 -0.1204 -0.3995 0.22808 0.30613 -0.39583 0.42025 0.38815 -0.23434 0.061061 -0.25048 0.15946 0.31726 0.35292 -0.11064 0.22369 0.56679 0.010998 -0.05777 0.34261 0.24966 -0.0077186 0.082855 -0.62765 0.27962 -0.36974 -0.092138 -0.68827 -0.34123 0.41351 -0.082537 -0.82731 0.6053 -0.28521 -0.40573 0.40774 0.36131 -0.36705 0.46592 0.27007 0.16364 -0.3857 -0.20697 -0.18029 0.41533 -0.61522 0.18039 -0.029271 0.040803 0.090675 0.048772 0.085438 0.52852 0.6587 -0.046341 -0.39888 0.36019 -0.16855 -0.24598 -0.048255 0.6025 -0.23768 -0.11606 -0.1674 0.16059 0.38874 -0.31147 0.74261 0.29644 -0.33285 0.19287 -0.30867 0.48305 -0.49693 0.38105 -0.032635 0.26657 0.61142 -0.053488 -0.57671 -0.2096 0.26624 -0.10058 -0.53725 0.47446 1.0452 0.41441 -0.2521 -0.75751 0.18905 -0.075632 -0.16584 -0.39055 -0.27928 -0.30597 0.16405 -0.11289 -0.074012 0.1658 
mattum 0.014106 0.41635 -0.12618 -0.091577 -0.17778 -0.15466 -0.62583 0.091813 -0.30886 0.23578 -0.53449 0.17887 -0.37536 -0.45008 0.32774 -0.48216 0.19258 0.47707 -0.18059 -0.015244 0.12868 0.80893 0.39318 -0.40504 -0.4646 0.29556 0.26294 -0.086465 -0.2218 -0.14326 0.22995 -0.5494 -0.16444 0.097804 -0.12226 0.22484 -0.45148 0.47633 0.12591 0.3587 0.42535 0.2633 0.60403 0.72033 -0.39153 -0.12437 0.30966 -0.95599 -0.30383 0.21067 -1.0072 -0.073456 -0.054442 -0.10354 0.28826 0.27023 -0.24798 0.22761 -0.29277 0.58602 -0.053928 -0.32624 0.49872 0.095882 -0.11038 -0.037742 0.093187 0.008841 -0.24012 0.15035 -0.19868 0.11269 -0.33069 0.55965 -0.19664 0.29032 -0.24772 -0.0023345 -0.077296 0.26191 -0.23493 -0.30015 0.6191 -0.087265 -0.062026 0.20532 0.40031 0.46805 -0.31833 0.47954 -0.21704 0.236 0.22477 -0.086564 0.18215 0.1664 0.67651 0.28945 0.15266 0.24228 
pola -0.26645 0.19014 -0.22814 0.41852 -0.10137 0.1881 0.017858 -0.063402 -0.34304 0.18625 -0.40047 0.21765 0.55506 -0.10654 -0.12598 0.21084 0.17188 0.39199 -0.19086 0.669 -0.0039668 -0.13162 0.59931 -0.22012 -0.28937 -0.082996 0.81862 0.4642 -0.31177 -0.098331 0.00038624 -0.15682 -0.34212 0.033005 -0.14621 0.028976 -0.34887 0.42902 -0.75816 0.40868 -0.10374 0.3255 -0.24811 0.30605 0.19978 0.6154 -0.21732 0.55068 -0.50206 -0.1594 -0.61432 0.20801 0.56878 0.078325 0.63806 -0.44731 0.29958 0.11023 -0.30126 0.532 -0.059329 -0.027715 0.20462 -0.28406 -0.016104 -0.030985 0.1627 -0.055475 0.54422 0.40139 -0.26412 0.32869 -0.35534 0.41403 0.0047271 -0.36961 -0.3059 0.066248 0.22746 0.21214 -0.25443 -0.12202 -0.37429 -0.30456 -0.23082 0.20387 -0.22866 0.2156 -0.44814 0.11766 0.0054043 0.76713 -0.34342 -0.046874 -0.37285 -0.47 0.24964 -0.018574 0.018424 -0.50049 
tha 0.22742 -0.58416 -0.32616 0.18197 0.34341 -0.44156 -0.2823 -0.72161 -0.039825 -0.24873 -0.1331 0.28353 -0.12539 0.41357 -0.20548 -0.40322 -0.013347 0.48846 -0.024345 0.50112 0.44454 0.08954 -0.16723 0.40529 0.32625 0.13722 0.2145 -0.76035 -0.70406 -0.27464 0.80854 -0.50995 -0.11214 0.37613 -0.47764 -0.78778 0.34068 0.37683 0.29319 -0.074075 0.24285 -0.053798 -0.8287 -0.33009 -0.28978 -0.00012507 -0.75435 0.01515 -0.38521 -0.24315 0.27992 -0.45058 -0.074552 0.31903 -0.030856 -0.46241 0.22619 -0.27919 -0.94508 0.086039 0.22426 0.24798 0.35314 0.11651 -0.10573 0.43284 -0.55619 0.017658 -0.1574 0.69215 -0.69981 -0.33601 -0.86647 0.71271 -0.76652 -0.32314 -0.14977 -0.0016886 -0.021342 0.71523 0.25469 -0.52126 0.1643 -0.77368 -0.38648 0.29292 0.78415 0.4001 -0.14629 0.23284 0.47639 -0.055728 -0.23825 0.22791 -0.75393 -0.19412 0.96893 0.55841 -0.082457 -0.85493 
vikram -0.0044017 0.20377 0.22516 0.001289 -0.23945 -0.64729 -0.21146 -0.12907 -0.17317 0.46096 0.20716 0.17409 0.074769 -0.15875 0.24891 -0.1316 0.13282 0.3576 0.061509 -0.2845 0.37014 0.034432 0.18183 -0.13793 -0.066192 0.12546 -0.42351 0.015724 -0.65142 -0.2014 0.0014288 0.039174 -0.3121 -0.18982 0.11958 -0.1485 0.4236 -0.21153 -0.13307 0.14478 0.1528 -0.033458 0.59374 -0.31843 -0.065717 -0.31744 0.10083 0.11309 -0.6103 0.21931 -0.43947 -0.30956 0.23026 -0.41191 0.31106 -0.76131 -0.4857 0.36077 0.041905 -0.22057 0.58947 0.47612 0.003489 0.44602 0.84064 -0.32382 -0.16218 0.28062 0.73196 0.25122 -0.92555 0.48474 -0.051427 0.44339 -0.016311 -0.38358 -0.42981 0.034762 -0.24361 -0.51888 -0.29223 0.26625 0.0083204 -0.13903 -0.56382 0.37954 0.33179 -0.53158 0.23205 0.19843 0.46356 0.14216 -0.42825 -0.13441 -0.091825 0.52904 -0.20873 0.22175 0.10564 0.44816 
indha 3.9903e-05 -0.18811 0.23829 -0.02612 0.077143 0.38756 -0.4979 0.019915 0.57161 0.49536 0.13635 -0.45831 -0.098107 0.18163 -0.12929 -0.010853 0.11457 0.26233 0.18647 0.44287 0.12783 0.26171 0.28606 0.1433 -0.039697 0.24811 -0.097519 0.33513 -0.2484 -0.0055086 0.69042 -0.27492 0.11712 0.12565 -0.23095 -0.39902 0.030966 -0.059859 0.037031 -0.26142 0.28586 -0.024193 -0.74623 0.49537 0.26703 -0.025195 -0.10575 -0.34245 -0.62013 0.2933 -0.5751 -0.48062 -0.28676 -0.67096 0.41055 -0.034218 0.38923 -0.59084 0.099255 -0.63522 0.2351 -0.17462 0.48347 0.15763 0.022059 -0.57366 -0.31654 0.08265 -0.43812 0.51902 -0.24739 0.46599 -0.21049 0.63273 -0.047715 0.2026 -0.38387 0.10546 0.47182 0.18186 -0.20736 -0.1014 0.092174 -0.17614 -0.42582 -0.34086 -0.26427 0.10832 -0.41347 -0.46664 0.18131 0.48393 0.41031 0.64429 -0.37619 0.074097 0.34065 0.71912 0.61956 -0.40297 
style 0.13512 -0.35939 0.30745 -0.40007 -0.020304 -0.35699 -0.49456 -0.5898 0.302 0.36938 0.17843 0.21922 0.28704 0.3904 0.021838 -0.34736 0.26097 0.83336 0.075825 0.0011335 0.32203 -0.46791 -0.13436 0.036827 0.22968 0.43192 0.024065 0.47886 -0.42813 0.095646 0.028183 -0.63587 0.0059925 -0.2223 -0.059635 0.20616 -0.24262 0.49336 -0.30714 -0.034404 -0.43944 0.23946 0.30884 0.53081 -0.12222 -0.13142 0.39625 0.076374 -0.60281 -0.31073 -0.54782 0.067335 0.13422 -0.65167 0.35598 -0.19782 -0.26758 0.024299 0.2301 0.20232 -0.047561 0.15116 -0.16803 0.080728 -0.0062022 0.16973 0.25074 0.4042 0.10393 -0.48915 -0.27426 0.21989 -0.60466 0.30554 -0.085662 -0.34002 -0.42485 -0.71609 -0.20927 -0.3378 -0.67132 0.54523 0.1058 -0.46063 -0.078158 -0.13834 0.12944 0.2511 -0.10503 0.51825 0.44443 0.46307 0.27882 0.11306 -0.36869 -0.34523 0.18956 -0.37934 -0.24415 0.59452 
am 0.75377 0.10355 0.30696 0.11017 -0.10909 -0.086991 -0.53182 -0.14876 0.051287 0.06857 0.02781 0.08533 0.65704 -0.13627 0.72541 -0.043731 0.024699 0.63744 0.1428 -0.37334 -0.16526 0.17052 -0.18705 -0.40151 -0.41914 0.034008 -0.047348 0.079614 -0.62312 0.36482 -0.44049 -0.50147 0.098977 0.27249 -0.58759 0.20894 0.98279 0.018051 -0.030325 0.53983 0.70583 -0.46518 0.471 0.29784 0.024869 0.13418 -0.83308 0.022586 -0.21764 0.3384 -0.78472 0.25574 0.58785 -0.44171 -0.080104 -0.27848 -0.49909 -0.23289 -0.24868 0.18512 0.7703 0.18703 -0.68539 -0.25433 0.67681 -0.42252 -0.44956 0.31857 0.19259 0.42319 -0.77033 -0.0039527 -0.25259 -0.35913 -0.12452 -0.72892 0.37801 -0.59267 0.14099 -0.73329 -0.69321 -0.046925 -0.40907 -0.13921 -0.37076 0.894 0.5218 -0.2519 0.33243 0.086575 -0.092492 -0.18023 -0.49513 0.18806 -0.72359 -0.10694 0.78478 0.16948 -0.30838 0.039884 
trending 0.26495 0.14654 -0.4904 -0.67323 0.3127 -0.8082 -0.21753 -0.11912 -0.17505 0.183 -0.32218 0.019057 0.27542 -0.36908 -0.1259 -0.12545 -0.53037 0.47351 -0.18503 -1.1974 0.29196 -0.63439 -0.04627 0.33592 -0.17408 -0.82428 0.54186 -0.027801 -1.2263 0.10352 0.52629 -0.18541 -0.47655 -0.18612 -0.60797 -0.25273 0.35259 -0.025431 -0.35923 0.14374 0.10264 0.040998 0.10122 0.51827 0.57253 -0.49267 -0.84251 -0.34932 0.035629 -0.093121 -0.3607 -0.23875 -0.27796 0.27824 0.24342 0.49596 -0.69527 -0.12364 -0.48533 0.15173 -0.71173 0.074517 0.067421 -0.38905 -0.27479 0.14273 -0.25256 0.37211 -0.022688 -0.12136 -0.39028 0.52479 0.33718 0.26874 -0.23021 0.0062179 -0.13766 -0.40065 -0.19065 0.16017 -0.086624 0.36119 0.34508 -0.70656 0.48923 -0.59277 -0.061473 -0.39827 -0.28109 -0.56305 0.76841 -0.44858 0.13725 -0.06557 0.0052882 -0.41123 -0.17463 0.30561 0.066899 0.18678 
tamil 0.14716 -0.1374 0.32537 0.12791 -0.17833 -0.61676 -0.048402 0.87238 0.43785 -0.38948 -0.18562 0.072469 -0.092999 -0.12637 -0.41828 -0.11087 0.18121 0.14491 -0.095849 -0.19554 0.24116 0.12999 0.46897 -0.43894 -0.68698 -0.42147 0.10553 -0.28372 -0.43103 0.23327 -0.46208 -0.63013 -0.4076 -0.57744 -0.041429 -0.74832 -0.65801 -0.30323 -0.17653 -0.18656 -0.1282 0.82092 -0.0054131 0.011543 0.069919 -0.28033 -0.28839 0.059572 0.19025 0.16832 0.05107 -0.12738 0.2734 -0.28946 0.476 -0.0020123 -0.28542 0.27267 -0.2449 0.1195 0.60655 -8.5602e-05 -0.081704 -0.44081 -0.40391 -0.13391 0.14762 -0.0083883 -0.19646 0.58554 -0.23957 0.7126 -0.35427 0.4058 -0.3875 -0.019487 -0.43098 -0.34267 -0.32774 -0.53445 -0.16335 0.53141 -0.09321 0.060699 -0.20959 0.32379 0.097089 -0.65198 -0.08554 0.2524 0.093628 0.46482 0.5153 -0.031767 -0.27622 -0.19257 -0.29249 0.29443 -0.056853 0.26592 
va 0.65652 0.55949 0.04647 0.23984 0.080831 -0.37132 -0.011654 0.15537 -0.052666 0.61479 -0.45268 -0.2972 -0.026287 -0.39106 -0.37204 0.64565 0.95685 -0.19066 0.15855 0.30771 0.64053 0.31257 0.25223 0.16121 -0.144 -0.50302 0.27214 -0.3147 -0.078959 0.50184 0.26899 -0.45942 0.17309 0.013451 -0.55389 -0.16525 -0.38063 0.34347 -0.26801 0.53799 0.15094 -0.014593 0.08727 0.22467 0.91254 -0.80705 0.07142 -0.59529 0.13937 0.36814 -1.1127 0.3488 0.10608 0.16404 0.72635 -0.2391 -0.31918 -0.6831 -1.2057 0.31179 -0.66062 0.45584 -1.3073 -0.026994 -0.37746 -0.15664 -0.26784 0.18365 0.12061 -0.13957 0.051586 0.70863 -0.61057 0.77176 -0.65337 -0.395 0.42693 -0.51367 0.50597 -0.31399 0.081572 -0.22191 -0.48432 -0.31742 -0.35058 0.12173 0.98372 0.37441 0.33892 -0.021935 0.6483 0.086987 0.15272 0.8271 0.34806 -0.21486 -0.060478 0.98811 -0.40387 -0.5648 
last -0.063172 0.1712 0.28886 0.064966 -0.38554 -0.0072528 -0.34946 -0.34121 -0.082173 0.15803 -0.40072 0.24039 0.32085 -0.12878 -0.53574 -0.38638 0.24343 0.28944 0.026259 -0.10934 0.21656 -0.010727 -0.47064 0.2873 -0.0082335 -0.33521 0.048445 0.23135 -0.60579 -0.034674 0.45126 -0.36797 -0.52136 -0.052543 -0.058932 -0.25338 0.30193 -0.17398 -0.020101 0.21076 0.031127 0.23052 -0.051808 0.88969 0.39858 0.25395 -0.35654 0.25508 -0.25825 0.53613 -0.45161 -0.33675 0.45329 0.15751 -0.066129 0.19488 -0.29252 0.22666 -0.14936 -0.1466 0.20101 -0.17085 0.38408 -0.17983 -0.19245 0.13218 0.098653 -0.20481 -0.17209 -0.02921 -0.26975 0.3406 -0.77441 0.64511 -0.23006 -0.21054 -0.20573 -0.10175 0.12629 0.56638 -0.012219 0.0021626 0.18254 -0.37116 -0.19162 0.33905 -0.2249 0.23622 0.030962 0.3653 0.083331 0.047989 0.40769 0.43456 0.32972 0.29008 0.28365 -0.48309 0.4932 -0.21125 
pink 0.24374 -0.31192 0.65026 -0.4708 -0.47862 -0.66692 -0.2835 0.74408 0.32166 -0.11934 -0.12169 0.15125 -0.072023 0.23208 -0.048341 -0.005291 0.29301 0.3595 0.048969 -0.14649 0.16906 -0.15929 -0.49623 -0.09922 -0.27899 -0.54807 0.021933 -0.41534 -0.42008 -0.11959 -0.25763 -0.09737 -0.40047 -0.3996 -0.70615 -0.022183 0.15248 -0.61161 -0.15518 0.50859 -0.035403 -0.05688 -0.1532 -0.16625 -0.062936 0.52916 0.14717 -0.12465 0.99327 -0.24898 -0.36851 -0.48949 0.28762 -0.54706 -0.10768 -0.12321 0.15328 0.20668 0.22285 0.46695 0.14672 0.081002 0.32149 0.075276 0.047743 0.085285 -0.014454 0.061577 0.31899 0.077228 -0.79062 0.92665 0.073154 0.57254 -0.37389 -0.27569 0.074149 0.26037 -0.091477 -0.30994 -0.32063 0.15712 -0.010428 -0.06987 -0.59984 -0.1338 0.52786 -0.094863 -0.37823 -0.060183 0.53409 0.2587 0.23135 -0.44726 -0.0098852 -0.21025 0.42209 0.25652 -0.24872 0.11446 
pannunga -0.20887 -0.11705 0.079146 -0.44671 -0.83669 0.16459 -0.87444 -0.1168 0.046955 0.33638 -0.65837 0.17476 0.11436 0.27775 0.39523 -0.073046 0.23337 0.59263 -0.25562 -0.17403 -0.38179 0.72964 0.23039 -0.26453 -0.68137 0.37863 0.48631 -0.15612 0.069174 -0.1284 0.12308 -0.11588 -0.48964 0.45699 -0.27328 -0.30079 0.16545 -0.17167 -0.062735 0.095728 0.72985 0.46202 0.1665 0.14913 -0.2071 0.089216 0.01117 -0.33854 0.15691 -0.16323 -0.02142 -0.58829 -0.81535 0.20118 -0.015218 -0.23923 -0.23609 -0.091921 -0.39868 0.31476 0.56982 -0.58987 0.046805 0.15941 0.24054 -0.18411 -0.34118 -0.10814 0.58986 0.49309 -0.58161 -0.024723 0.33878 0.44304 0.28489 0.32928 0.13939 0.18245 0.24858 0.20403 -0.044505 -0.65869 1.1003 -0.51671 -0.38051 -0.38703 0.18728 0.16174 -0.15601 0.29545 -0.070102 0.40807 -0.39139 -0.26178 -0.071071 -0.3349 0.42794 0.44063 -0.11886 -0.00065373 
yuvan -0.33498 0.79476 0.44716 -0.051263 0.21453 -0.064906 -0.048966 -0.22316 0.64737 0.68098 -0.14792 -0.24539 0.054824 0.249 0.12614 0.15377 -0.5791 0.48024 0.023245 0.50864 0.2708 0.24584 0.43622 0.50471 -0.21556 -0.66738 -0.23098 -0.057118 -0.60824 -0.1054 -0.11505 -0.18677 -0.63135 0.29475 -0.29618 -0.32523 -0.22798 -0.0057028 -0.25789 -0.22035 0.18941 0.52338 0.82246 0.30968 0.39224 -0.38447 -0.066603 -0.065324 -0.36033 0.36895 -0.33072 -0.31848 0.028121 -0.07022 -0.29606 -0.24066 -0.10906 0.39671 -0.12771 -0.020333 0.10215 -0.29078 0.57321 0.16729 0.26728 0.21501 0.062261 -0.11742 0.34533 -0.27025 -0.48706 0.92129 -0.076626 0.39698 -0.01474 -0.056952 -0.24459 0.098862 0.43851 -0.32795 0.31645 0.75652 0.13756 -0.86708 -0.3272 -0.12635 0.78023 0.38152 0.038596 0.093142 0.3117 -0.33097 -0.58272 -0.16429 -0.59694 0.091696 -0.12941 -0.27208 -0.62455 -0.072095 
ya 0.56568 -0.14217 0.28124 -0.10216 0.3139 0.49219 -0.40815 -0.023582 0.070614 0.37534 0.54323 0.054673 -0.12339 0.22598 0.16862 0.24244 -0.0088236 0.37905 -0.077091 0.03551 -0.14489 -0.057026 0.18619 -0.080738 -0.040641 -0.56745 -0.19157 0.31048 -0.24794 -0.28649 0.10677 -0.6769 -0.56363 0.45681 -0.48442 0.067114 -0.019965 -0.072426 -0.24986 0.54779 0.48624 -0.39846 0.043248 0.40875 0.22998 0.015527 -0.013832 -0.12557 0.27169 0.58602 -0.84843 0.26193 0.57798 -0.49072 0.64823 -0.83271 -0.14722 -0.6404 -0.42056 0.29227 -0.33936 0.035113 0.16027 0.11503 -0.59697 0.75816 -0.43856 0.295 0.37438 -0.34084 -0.55934 0.068951 -0.01315 0.74746 0.093774 0.14877 -0.30374 -0.47519 0.11784 0.42308 -0.23429 -0.020515 0.20973 -0.125 0.40211 0.29114 0.30427 0.35995 -0.098001 -0.35331 -0.50485 0.76455 -0.14362 0.056723 -0.44055 -0.42537 0.27981 -0.27456 0.25116 0.20714 
of 0.14888 0.16707 -0.40072 -0.13911 -0.23117 -0.28554 0.22548 0.25621 0.043947 0.036468 0.21155 -0.38314 0.38672 -0.083494 0.15984 -0.070267 0.2704 0.67806 0.4108 0.11496 0.34406 -0.29487 0.59268 0.058687 -0.29311 -0.71893 0.28495 -0.10741 -0.40157 0.046214 -0.4588 -0.1523 -0.67031 -0.65794 -0.27621 -0.25358 0.19059 -0.24046 -0.13701 -0.04054 -0.27368 0.22007 0.56965 -0.095563 0.32063 0.24373 -0.043761 0.03098 0.42909 0.09186 -0.20537 -0.51062 0.59056 0.16369 0.11371 -0.44213 -0.12932 0.26103 -0.3789 0.063488 1.0064 0.10647 0.14855 0.34458 0.25642 -0.30672 -0.46399 0.40298 0.076333 0.14266 -0.28959 0.50338 -0.25859 -0.032242 -0.19104 -0.3716 -0.3948 -0.1976 0.42464 -0.83071 -0.53058 0.46336 0.07932 -0.40961 -0.15521 -0.30357 0.53053 0.059639 -0.12402 0.16372 0.27093 0.67803 -0.54105 -0.074779 -0.26017 0.17841 0.021048 0.32645 -0.11227 0.19491 
kola -0.25976 -0.09795 -0.59951 -0.13453 0.17552 0.44944 -0.77948 0.36147 0.0053571 0.58797 -0.5263 -0.16617 0.22597 0.52324 -0.11984 0.077278 -0.15477 0.34671 0.2291 0.30935 0.098041 -0.44977 0.087338 -0.58389 -0.45617 -0.34044 0.46374 0.44821 -0.47551 0.1107 0.68373 -0.45235 0.66702 0.15804 -0.87869 0.87149 -0.26689 -0.026842 -0.67524 -0.16813 -0.39681 0.26717 0.74823 0.70177 0.074208 -0.23397 -0.45702 0.066664 0.27992 0.16406 -0.093786 -0.31755 0.33431 0.12752 0.3864 -0.7152 0.37749 0.12471 -0.33318 0.084165 0.23986 -0.062969 1.1957 -0.80362 0.55115 -0.223 -0.4409 0.084246 -0.0038617 0.36741 -0.67695 0.3528 -0.22429 -0.29654 -0.11357 0.1869 0.34433 -0.14872 0.21515 -0.39385 -0.35222 0.27665 -0.32104 -0.90757 -0.36433 -0.088481 0.16879 0.24495 -0.39946 -0.32046 0.27271 0.65731 -0.31002 0.29464 -0.055728 -0.45475 0.038788 -0.39807 -0.90624 -0.32226 
it -0.16004 0.29784 0.17795 -0.5928 -0.56731 -0.12321 0.19786 -0.19581 -0.10396 0.013148 -0.13006 0.077493 -0.031592 -0.55098 -0.054678 0.064564 0.32118 0.017212 -0.18676 0.20574 0.12678 -0.52706 -0.37774 0.25215 0.024291 -0.30904 0.55873 0.27756 -0.37333 0.50741 -0.38349 -0.18439 -0.92672 -0.15805 -0.31722 -0.37197 0.52205 -0.32839 -0.031031 0.026178 0.21679 0.26539 -0.05336 0.46776 -0.25544 0.42424 0.075664 -0.24351 0.020532 0.11663 -0.48144 -0.36622 0.97625 0.11625 -0.024306 -0.25844 -0.20853 -0.056677 -0.033466 0.404 0.60614 -0.2888 0.2934 -0.00090969 0.71292 -0.4962 -0.44339 -0.23619 0.13343 -0.15207 -0.18955 0.85826 -0.10846 -0.22917 0.28563 -0.24776 0.0016437 0.016618 0.82834 0.054131 -0.1262 0.12533 0.32916 -0.27254 -0.22358 -0.23728 0.85715 0.28464 -0.069415 0.30103 0.086261 0.70061 0.93361 -0.011772 0.16449 -0.46501 0.35851 0.37235 0.022438 0.082708 
1 0.22234 0.089366 -0.13289 -0.43204 -0.18209 -0.20455 -0.0084318 0.21443 0.27743 0.18087 -0.67505 0.35249 0.12226 -0.28729 0.15379 -0.23459 -0.23445 -0.10956 -0.59097 -0.58368 0.85425 -0.34265 -0.013804 -0.17677 -0.14769 -0.025144 0.56494 -0.35554 -0.58802 0.046394 0.13449 -0.29978 -0.5097 -0.31026 -0.36555 -0.43417 0.15495 0.28639 -0.24195 0.18203 0.51248 0.05923 -0.12107 0.16789 -0.07946 -0.2109 -0.66788 -0.48105 -0.71599 -0.13537 -0.61021 -0.39578 0.056889 0.21137 -0.0082868 -0.18536 -0.65668 -0.085424 -0.84821 0.48951 -0.69798 0.31005 0.28119 0.020961 0.24372 -0.11423 -0.29371 0.43592 0.0010655 0.39111 -0.20569 0.22982 0.4579 0.35955 0.090261 -0.22181 -0.040136 -0.21057 0.17396 0.30077 -0.44783 0.45223 0.4281 -0.15385 0.1913 -0.18275 0.19185 0.023494 -0.11416 -0.10983 0.39025 -0.28795 0.56778 -0.64576 -0.0020077 0.073358 -0.30161 0.51995 0.12886 0.23309 
hero 0.099361 0.4276 -0.32027 0.34924 -0.48604 -0.10748 -0.39591 0.28329 0.084332 0.14809 0.39985 0.032206 -0.16131 0.16096 -0.36582 0.52924 -0.11634 0.47252 0.35111 -0.86391 0.34253 0.57797 -0.27564 0.11848 -0.20609 -0.42367 -0.075061 -0.083543 -0.29205 -0.11462 -0.46563 -0.015948 -0.62363 0.24622 -0.091699 -0.75841 -0.20324 -0.14859 0.42485 -0.51841 0.30758 0.43597 0.050748 -0.14055 0.15025 0.12326 0.29381 -0.27853 -0.56626 -0.03046 -0.19137 -0.154 0.29281 -0.43963 -0.24657 -0.29258 0.42829 -0.051421 -0.26295 0.21365 -0.54242 0.39933 0.29675 0.28866 -0.025634 0.30631 0.026059 0.21943 0.04624 0.14237 -0.71486 0.35529 -0.4482 0.32315 0.34511 -0.32712 -0.1598 -0.36676 0.17827 0.41885 -0.079121 0.34232 -0.25584 -0.18744 -0.73943 -0.040936 0.75192 -0.16928 0.60783 0.4233 0.45347 0.009423 0.02818 0.28394 0.17018 0.35617 0.52923 0.79034 -0.27411 0.53514 
sk -0.49406 1.0587 -0.27975 0.070017 -0.078976 0.069259 -0.36035 0.31425 0.34584 0.12943 0.17987 0.25951 -0.35972 0.020972 -0.032015 0.067343 -0.42875 0.61919 0.079066 -0.12318 0.47878 0.18629 0.22503 -0.16054 -0.48912 0.071908 0.33786 0.081517 -0.70436 0.068707 -0.32261 -0.21694 -0.63904 0.63241 -0.11823 -0.31238 0.1929 -0.25002 -0.096516 -0.22854 0.25145 0.3393 -0.20533 0.17709 0.088413 0.053603 -0.04024 -0.2253 -0.21063 -0.14802 -0.40486 0.0063867 0.25057 0.12632 0.51458 -0.8433 -0.25419 -0.060246 -0.049462 0.1606 -0.40914 0.29637 -0.21164 0.15865 0.33776 -0.012606 -0.24195 0.20129 -0.096331 0.28466 -0.52528 0.6699 -0.35367 0.20374 -0.057291 -0.12 0.19782 0.077395 0.28467 0.12612 0.0062137 -0.22543 0.20624 -0.27544 -0.37419 -0.055392 0.23145 0.36947 0.65814 -0.26261 0.3519 -0.50664 0.10471 0.26506 -0.24325 0.38147 0.096857 0.33572 -0.66594 0.3811 
release -0.55184 -0.41925 -0.38562 -0.77905 -0.85925 -0.10467 -0.43455 0.38855 0.065354 0.095409 -0.41305 -0.069882 -0.25202 0.028382 -0.1522 -0.24109 -0.039988 0.010444 -0.33236 0.035123 -0.1939 0.29388 0.14697 -0.028342 -0.38947 0.24885 0.4794 -0.04144 -0.061157 -0.23336 0.39783 -0.43493 -0.16967 -0.32724 -0.78045 0.26464 -0.14027 -0.33124 -0.020145 -0.14658 -0.42915 0.52965 -0.20683 0.32548 -0.30205 -0.3804 -0.68873 0.038087 0.12109 -0.18341 -0.17139 0.23935 -0.21778 0.28691 0.49369 -0.48775 -0.36421 -0.44647 0.014945 -0.18066 -0.48912 -0.18092 -0.36296 -0.086853 -0.26452 -0.50507 0.2378 -0.21977 0.36336 0.73097 -0.79556 0.53416 0.55995 -0.29185 -0.097916 -0.21282 -0.27384 0.15774 -0.17088 -0.19412 -0.73282 0.37823 -0.084796 -0.49271 -0.47788 0.54122 0.19694 0.14183 -0.32507 -0.37577 0.11091 0.015825 0.20386 0.041719 -0.62827 -0.77489 0.45445 0.49657 -0.035517 0.33216 
ithu -0.0053037 0.14148 -0.27696 -0.05176 -0.32499 -0.11282 -0.026257 -0.047494 -0.46132 0.10779 -0.33366 -0.020295 0.30034 -0.26839 -0.24093 0.34454 0.39565 0.71299 -0.0094557 -0.14187 -0.53106 0.2244 0.92695 -0.047927 -0.40968 0.12455 0.47756 -0.75613 -0.13634 0.31001 0.19114 -0.24759 -0.38919 -0.53055 -0.0096621 -0.69395 0.42341 -0.072107 -0.34533 0.099536 -0.3699 0.55043 0.17625 0.23436 0.20436 -0.052255 -0.088339 -0.21206 0.97161 0.61683 -0.086427 0.14209 0.44487 0.10657 0.27168 -0.2824 0.083082 -0.196 0.086928 0.69777 0.53593 0.31966 0.54057 -0.4818 -0.2225 0.34511 -0.12139 -0.39885 -0.095985 -0.027594 -0.70065 0.70918 -0.14426 0.62271 0.27014 0.095949 -0.010566 0.20729 -0.0099251 0.35375 -0.39205 0.07474 -0.61522 0.59499 -0.23032 -0.85551 0.49268 0.095369 -0.23038 -0.19993 0.027055 0.45494 0.23832 0.5392 -0.12251 -0.33963 0.8187 -0.34728 -0.2374 0.11326 
all 0.16243 -0.14494 0.071893 -0.119 0.17273 0.076905 -0.19551 0.16986 0.061773 -0.052184 -0.19059 -0.13136 0.63325 -0.036399 -0.12228 -0.027328 -0.061741 0.82293 0.47541 0.47091 0.3018 -0.35716 0.030832 -0.093436 -0.63932 -0.18277 0.26738 -0.44683 -0.61567 -0.10892 0.17218 -0.64606 -0.095412 -0.11085 -0.22675 -0.027064 0.11736 -1.0081 -0.26948 -0.024821 0.39232 0.36231 -0.0087877 0.18785 -0.39342 0.19911 -0.22967 0.22453 -0.35349 0.26004 -0.38334 0.078912 -0.046063 0.31865 0.48125 -0.23341 -0.35328 -0.22249 -0.028698 -0.2121 0.37561 -0.535 -0.14505 -0.20927 0.19074 -0.31731 0.20163 0.52516 0.39758 0.34907 -0.17543 -0.16574 -0.42151 0.27633 -0.274 -0.15727 0.2571 -0.070107 0.079508 -0.37195 -0.055274 -0.054164 -0.10054 -0.55038 -0.24429 -0.16703 0.52281 -0.089058 0.1812 -0.082998 0.41708 0.241 0.38465 0.033683 -0.021511 0.39197 -0.49738 0.068978 0.51585 -0.09177 
best 0.17605 0.231 0.30025 0.11269 -0.23168 -0.062477 -0.60249 0.30266 0.20736 -0.19509 0.25674 -0.60082 0.32478 -0.11877 0.075949 -0.70144 0.23653 0.40461 0.84717 0.59523 0.10465 0.065262 0.017603 -0.16028 -0.71748 -0.28285 0.11423 -0.39045 -0.67516 -0.042284 0.35668 -0.554 -0.05677 -0.43542 -0.53977 -0.15274 -0.25766 -0.94694 -0.08687 -0.23073 0.35255 -0.02771 0.12952 0.23271 -0.50423 0.63953 -0.070938 0.12301 -0.21864 0.24352 -0.63155 0.15709 0.010868 0.33812 0.24878 -0.7923 0.072027 -0.10141 -0.36483 0.17762 0.71074 -0.16361 -0.055754 -0.57317 -0.10721 -0.068 0.64478 0.12321 0.60807 0.28547 -0.5286 0.35409 -0.41613 0.4069 0.06297 -0.21414 0.32053 0.041429 0.33392 -0.16193 -0.40151 0.092937 0.38123 -0.37833 0.06566 0.14331 0.59149 -0.43098 0.15219 0.15501 0.79363 0.18826 0.33875 -0.088215 0.12681 0.39436 -0.77456 0.12837 0.16784 0.19635 
) 0.7378 -0.21797 -0.41906 -0.42971 -0.34177 0.28219 -0.51296 0.37338 0.22064 0.20641 -0.23205 -0.074037 -0.13618 -0.063525 0.53267 0.35932 0.037627 0.44924 -0.12011 -0.43513 0.72551 -0.1763 -0.15796 0.19535 -0.11146 -0.20018 -0.51786 0.3687 -0.2682 -0.22952 -0.14306 -0.64389 -0.17648 0.079777 0.14639 -0.3944 -0.47387 -0.68941 0.15886 -0.25843 0.19128 0.54437 0.13886 0.11911 0.17641 -0.13804 -0.62926 -0.10571 0.087483 -0.026012 -0.16679 -0.67904 0.20422 -0.14845 -0.1824 0.016292 -0.0063489 0.16187 0.035336 -0.56717 0.58429 -0.051225 0.97157 -0.16626 0.14037 0.29588 -0.67431 0.36589 0.45212 0.5446 -0.24887 0.2105 -0.13157 -0.1444 0.75589 -0.5079 -0.16387 0.12555 0.37936 -0.1691 -0.50848 0.25468 0.30967 0.16724 -0.52474 0.2746 0.40383 -0.84445 -0.40879 -0.40023 0.27304 0.56018 -0.42291 0.29564 0.13726 0.11232 0.45354 -0.055087 -0.31619 -0.30785 
panna 0.077186 -0.38869 0.32487 -0.62218 -0.14696 0.0066848 -0.42013 0.37223 0.067831 0.1434 -0.37046 -0.30519 -0.21168 0.90261 -0.18999 -0.11086 0.52542 1.637 -0.40893 -0.27726 -1.0802 0.14123 0.23368 -0.050643 0.10242 0.6183 1.0909 0.062968 0.41005 -0.11836 0.43213 -0.71925 -0.62747 0.17274 -0.023219 -0.21692 0.044257 0.20268 -0.091511 0.45228 0.29898 -0.13737 0.40217 0.58192 -0.10526 -0.26468 -0.036608 -0.33352 -0.056336 0.023037 -0.38454 -0.4134 -1.124 0.29804 -0.3678 -0.87872 0.21012 -0.09657 -0.036766 -0.23733 0.15487 -0.33133 -0.22445 0.045268 -0.017764 -0.34845 -0.47517 -0.34724 0.69391 0.12867 -0.67366 -0.054969 0.31757 0.28475 -0.28317 -0.21284 0.076865 -0.053607 0.87574 0.68673 -0.11157 0.20494 0.60254 -0.54854 -0.40817 -0.56986 0.096188 0.25591 -0.22617 0.4308 0.16221 0.53021 -0.47225 -0.0096331 -0.23573 -0.08705 0.29078 0.25405 -0.21872 -0.45318 
kaithi -0.18192 0.15481 0.12965 -0.55197 -0.15163 0.10337 -0.11792 0.24049 0.27439 -0.36124 -0.30967 -0.37608 0.060121 0.4653 0.28098 -0.10906 -0.052201 0.46324 -0.020399 -0.43764 0.52141 0.69701 -0.15672 -0.085203 -0.32817 0.0086451 -0.028393 -0.021185 -0.34561 -0.18392 -0.1294 -0.28532 -0.51308 0.23743 -0.9228 -0.065755 0.43509 -0.17791 -0.50407 -0.34447 0.39333 0.70957 -0.15208 0.10246 -0.15327 0.48334 -0.6267 -0.4378 -0.16503 0.18754 0.1333 0.079336 -0.43483 -0.13597 0.67306 -0.32517 -0.18977 -0.054175 -0.26192 0.22259 0.0023967 -0.15906 -0.48571 -0.3576 0.17502 0.076032 -0.039876 0.13503 0.43371 0.10576 -0.6553 0.1955 0.04161 0.73626 0.048691 0.13969 0.21599 0.18142 -0.72867 -0.089838 -0.062723 0.6517 0.24365 -0.011167 -0.4778 0.117 0.017399 0.18578 -1.073 -0.58739 0.22064 0.17196 -0.071828 0.2601 0.093677 -0.0099376 0.10438 -0.63701 -0.022358 0.3852 
comment 0.17167 0.39055 -0.24491 0.10509 -0.99041 0.21828 -0.52115 0.67523 0.75031 -0.21446 -0.68788 0.58775 -0.18029 0.18159 0.19803 -0.32621 0.0063059 0.96438 -0.42302 -0.71728 -0.10404 -0.039558 -0.40249 0.13713 -0.43562 0.15147 -0.033164 0.21377 0.26479 0.2617 0.036804 -0.20438 -0.03718 0.68367 -0.72429 -0.17157 -0.029656 -0.42268 -0.26866 -0.81638 0.84996 0.55912 0.27102 -0.34564 -0.28794 -0.64932 0.00089367 0.10436 -0.39466 -0.049993 -0.11342 -0.57504 -0.20048 -0.60799 0.06123 0.37542 0.15229 0.41997 0.19909 -0.12312 -0.071129 0.11546 0.18224 0.25759 0.21477 -0.016273 -0.83025 0.31278 0.070005 0.86037 -0.57938 0.03718 0.27075 0.59164 0.39543 0.12954 0.48703 0.081471 0.074138 -0.075951 -0.11147 0.28317 -0.015013 -0.1932 0.21049 0.34449 -0.057916 -0.2843 -0.50973 0.11972 0.52777 0.18592 -0.13331 -0.15823 -0.23553 -0.062752 0.51395 0.5942 0.28779 -0.15968 
the 0.099185 -0.45208 -0.21161 0.23366 -0.077592 -0.11757 -0.3925 0.085389 -0.17023 -0.18749 0.15393 -0.70219 -0.60385 -0.026556 0.057119 -0.29568 0.23391 0.66064 0.66573 0.68757 0.11193 -0.21823 -0.37047 0.039625 -0.33066 -1.0874 -0.26507 0.34963 -0.24869 -0.036425 -0.06779 -0.33014 -0.079433 -0.11392 -0.67215 0.16871 0.057255 -0.56153 0.44619 -0.18519 0.0077565 -0.082044 -0.069982 -0.05619 0.48528 0.074492 -0.76434 0.021763 -0.44094 0.15717 -0.47857 -0.31171 -0.13155 0.53776 0.57851 -1.108 -0.1444 0.056958 -0.35658 -0.15243 0.778 -0.038099 0.30141 -0.40183 0.10851 -0.44269 0.72554 -0.041391 0.19064 0.393 -0.43229 -0.10483 -0.245 0.42768 -0.21501 -0.21547 -0.0099668 0.20833 0.83053 0.14213 -0.22511 0.3388 0.30708 -0.54269 -0.005264 -0.033728 0.98998 -0.29749 0.37199 0.56817 0.88165 0.57236 0.10641 0.27153 -0.054025 0.80221 -0.016345 -0.052206 0.52505 0.59983 
- 0.26425 0.16878 -0.26555 -0.25231 -0.29235 0.20391 -0.56389 0.32224 -0.036212 0.24045 -0.13059 0.037584 0.095021 -0.022344 0.11359 -0.05692 0.64986 0.24856 -0.21463 -0.19106 0.47627 -0.02554 -0.15554 0.32789 -0.28495 0.24834 0.26859 0.32919 -0.35789 0.17007 -0.7327 -0.79001 -0.18376 -0.68834 -0.1587 0.028629 0.50827 -0.55092 -0.56506 -0.82792 0.33923 0.068574 0.34755 0.178 0.32185 0.13888 0.029257 -0.18728 0.023958 0.16499 -0.18468 -0.88925 -0.13808 0.22543 -0.04166 -0.047731 0.19958 0.26736 -0.42217 -0.42022 0.55549 -0.24023 0.65084 -0.38471 0.19594 0.33672 -0.6708 0.91684 0.30475 0.94504 -0.64483 0.1255 -0.63797 -0.1532 0.15779 -0.20657 0.081751 0.32985 0.29094 -0.39666 0.27865 0.16236 -0.25598 -0.16145 0.32785 0.18078 0.045806 -0.79576 -0.40101 -0.41672 0.68737 0.32319 0.078356 0.63173 0.086282 0.05016 -0.0049324 0.10691 0.11295 -0.0092688 
rajni 0.44183 -0.087726 0.18808 -0.30791 -0.39885 -0.42175 0.011289 -0.49208 0.15958 0.65149 0.053063 -0.28169 0.082897 0.95897 0.55362 0.11711 -0.040517 0.21802 -0.12332 -0.31893 0.79006 -0.33764 0.10996 -0.16661 -0.33001 0.28732 -0.13236 0.46346 -0.53783 -0.31146 -0.15008 -0.69309 -0.45381 -0.020766 -0.30697 0.20251 0.258 -0.36162 -0.13957 -0.35328 0.24148 0.17592 0.42608 -0.010472 0.097954 0.34257 -0.10579 0.54408 -0.16556 -0.1273 0.038889 -0.15801 0.2574 -0.42943 -0.68091 -0.44313 -0.51641 0.28042 -0.087787 -0.082092 0.32468 0.37323 0.23516 -0.12883 0.28944 0.13587 0.052432 0.35992 0.3093 -0.46142 -0.92361 0.21126 -0.1925 0.4118 -0.24117 0.21098 0.25099 -0.36413 0.22411 0.022596 -0.18083 0.73479 -0.56085 -0.02439 0.018661 -0.050616 0.27673 -0.048737 0.093422 0.45604 -0.0692 0.037262 0.38052 -0.068512 -0.039156 -0.39015 0.091079 0.51497 -0.081791 0.46862 
nee 0.13962 0.64414 -0.21698 -0.90742 0.58284 0.38152 -0.34296 0.23849 -0.43829 0.70927 -0.062931 -0.26825 0.53066 0.036824 -0.51945 0.63927 0.15513 0.46475 -0.18881 0.021062 0.25 -0.28305 0.10221 -0.26198 -0.035149 -0.33882 -0.34189 0.48553 0.44189 -0.21465 0.5209 -0.93902 0.33111 -0.056907 0.14891 -0.32677 -0.091132 0.17288 -0.0907 0.31158 0.5966 0.17497 0.096527 0.75121 0.27602 -0.72756 -0.031003 -0.72324 -0.021687 -0.1338 -0.65383 -0.085021 0.28418 -0.26972 0.52004 0.11792 -0.30258 -0.37957 -0.48242 0.40438 -0.34448 0.61802 0.012442 -0.4502 -0.26283 -0.37095 -0.50724 -0.61539 -0.056417 -0.20377 -0.3404 0.73825 -0.18951 0.17369 -0.0029534 0.45531 -0.52079 0.066065 -0.027534 0.041177 0.12549 0.51191 0.21621 0.20169 -0.56432 0.11573 0.45775 0.22316 0.16464 -0.19166 -0.24287 0.1422 -0.003977 0.034904 -0.57187 0.2836 -0.239 0.1971 -0.17373 0.018477 
: 0.12641 0.032011 0.020558 -0.58749 -0.10486 0.58134 0.058679 0.82226 -0.01998 0.31781 -0.11224 0.37109 -0.17723 0.044719 -0.11136 -0.10343 -0.14403 0.76464 -0.13139 -0.45046 0.39719 0.12984 -0.53556 0.32193 0.11019 -0.070194 0.57175 -0.05077 -0.0093545 0.045238 0.14668 -0.46542 -0.38953 -0.54845 -0.36296 -0.3608 0.4838 -0.2842 -0.00071895 0.015121 0.058003 0.19771 0.42949 0.48031 -0.026187 -0.35055 -0.75361 -0.17173 0.088904 0.17601 -0.7039 -0.16636 -0.024883 -0.47146 -0.17956 -0.41821 0.20459 0.28809 -0.27926 -0.80197 -0.029905 0.031302 0.53405 0.10762 0.020616 -0.21639 -0.29035 -0.16328 0.10549 0.23024 -0.081277 0.17591 -0.55258 -0.49284 0.38316 -0.59083 0.31835 0.39948 0.45556 -0.4338 -0.14068 -0.11159 0.32842 -0.15968 -0.56916 0.11787 0.32723 -0.56533 -0.54663 -0.37833 0.45013 0.1873 -0.25469 0.57897 0.65734 0.68163 0.74308 0.11966 -0.41482 -0.14958 
shankar 0.2125 0.53007 0.034728 -0.26655 -0.11304 -0.69209 -0.068015 -0.028743 0.88361 0.55057 0.1341 -0.12405 -0.038868 0.35369 -0.059233 0.086549 -0.00081361 0.74993 0.034538 -0.24167 -0.04493 0.17166 0.41214 -0.07731 -0.49502 -0.1361 -0.29494 -0.62305 -0.069341 0.18849 0.087565 -0.5981 -0.45006 -0.47904 -0.38939 -0.64926 0.11641 0.21724 -0.31478 -0.15418 0.45819 0.47194 0.6037 0.5037 -0.064687 -0.02084 -0.42144 0.067982 -0.55211 -0.015942 -0.087108 0.18131 -0.2458 0.24532 -0.34617 -0.19562 0.045448 0.35695 0.69501 -0.30595 0.52799 0.19354 0.39988 0.20341 0.10323 -0.16287 -0.086713 -0.28672 0.382 0.37958 -0.291 0.73078 0.1146 0.59821 0.51252 -0.0088168 0.14947 0.06349 0.46018 -0.42442 0.31148 0.7569 0.14788 -0.075469 -0.4756 -0.024438 0.62859 -0.0057127 0.57871 0.51709 -0.1438 0.49685 0.46484 -0.42663 -0.48632 0.1926 -0.29619 0.0015181 -0.36992 -0.15348 
innum 0.54451 -0.061041 -0.079077 -0.48185 0.61909 -0.28976 -0.45257 -0.65616 -0.20163 -0.024177 -0.33463 0.061682 0.11438 -0.34709 -0.12532 -0.065333 -0.040843 1.0625 -0.31854 0.08216 0.1613 -0.22454 0.6422 0.51734 -0.48591 0.13358 0.47828 0.06941 -0.16417 -0.22798 -0.10939 -0.51417 -0.3509 -0.067125 -0.39241 0.44539 -0.34368 0.16132 0.23946 0.19646 0.26715 0.4445 0.2002 -0.083293 -0.11258 0.36128 0.29522 0.013866 -0.29277 -0.012061 -0.64993 -0.62606 -0.71151 -0.19149 -0.20739 -0.14479 -0.095348 -0.085378 0.049639 0.49531 -0.25166 -0.072731 -0.25547 -0.15363 -0.1778 -0.064683 0.049506 -0.34826 0.20638 0.46759 -0.60334 -0.036126 0.31214 0.94813 0.50924 0.19114 0.193 0.012066 0.0082038 -0.11107 0.020864 0.5059 0.54544 -0.32441 -0.21409 -0.38626 -0.15565 -0.30964 0.31792 -0.36747 0.59227 -0.3107 -0.10794 0.23954 -0.30227 -0.75036 0.22894 0.47381 -0.088702 -0.06908 
's 0.060801 0.52944 -0.17325 -0.38019 -0.1863 -0.4155 0.11197 -0.21192 -0.069749 0.21874 -0.14925 0.12198 0.0013814 -0.46723 -0.070606 0.20964 -0.0094596 0.68401 -0.016756 -0.020095 0.33388 0.21885 -0.28559 0.14099 0.14493 -0.24673 0.56231 0.15592 -0.45205 0.54818 0.21319 -0.81062 -0.51821 -0.26278 0.11859 -0.22784 0.47135 0.2861 0.044988 -0.13103 -0.027634 0.074072 -0.16606 0.29115 0.0078847 0.12291 -0.22599 -0.11862 -0.34448 0.2052 -0.44085 -0.37021 0.11228 0.24589 0.21677 -0.17993 -0.44177 0.5479 0.12242 -0.019813 0.47691 -0.13166 0.15408 0.1732 0.49588 -0.42105 -0.7071 0.0019478 -0.028788 0.29949 -0.34365 0.29297 -0.37857 -0.61663 0.17525 -0.34877 0.29093 -0.28329 0.54224 -0.093758 0.17597 0.13206 0.053323 -0.22958 -0.47719 0.26794 0.8182 0.075335 0.057288 0.42747 -0.14392 0.34045 0.25389 0.07508 0.2558 0.30354 0.60808 0.091417 0.47048 0.59868 
remake 0.29598 -0.14883 0.3723 -0.30746 -0.12838 -0.30287 -0.22944 0.24135 0.48776 -0.091034 -0.16561 0.068317 -0.016261 -0.29768 -0.074806 0.24635 0.31559 -0.1589 0.0074509 0.23927 0.33183 -0.27068 -0.6256 0.17813 -0.17237 -0.74435 0.23686 -0.42917 -0.33154 -0.17464 -0.24945 -0.19409 -0.76909 -0.40534 -0.56524 -0.10465 -0.10801 -0.4533 -0.32384 0.64711 0.012126 0.12504 -0.32453 -0.15076 0.26999 0.54258 0.13981 -0.21093 0.75946 -0.013861 -0.34574 -0.74258 0.23828 -0.18202 -0.017963 -0.14854 -0.084234 0.51687 0.36086 0.45714 0.49728 -0.26379 0.33563 0.1253 -0.14707 -0.35359 0.077823 0.13054 0.17182 0.34103 -0.12667 1.1004 -0.21692 0.37445 -0.42867 -0.64755 -0.21099 0.12352 -0.44231 -0.41856 -0.6136 0.3274 0.0035659 -0.43999 -0.86046 -0.039733 0.62076 -0.098639 -0.53879 -0.016932 0.31085 0.76629 0.14096 -0.30671 -0.094777 -0.30294 0.36269 0.44091 -0.18183 0.12362 
